nep4 1 Si 
cutoff 5 5 27 27
n_max 10 10
basis_size 12 12
l_max 4 2 0
ANN 60 0
 -5.2245754e-01
 -1.0024697e+00
  2.1056905e+00
  4.1387692e-01
 -2.3222889e-01
  3.3186063e-01
  6.2895089e-01
  3.0937183e-01
 -1.4484144e+00
  5.0245041e-01
 -7.9424161e-01
  9.4283617e-01
 -4.0984806e-01
  8.4138507e-01
  4.6952732e-02
 -1.2889453e+00
  2.4571542e-01
 -3.3977032e-01
 -3.3509809e-01
 -3.1051549e-01
 -2.5882989e-01
  2.3956503e-01
 -4.1720098e-01
 -1.9713891e-01
  9.4683194e-01
  6.7422605e-01
 -8.4014200e-02
  8.5064828e-02
 -1.0781310e+00
  7.0875275e-01
  3.2031095e-01
 -9.9211848e-01
 -7.8585732e-01
 -1.0400972e+00
 -4.5257241e-02
 -2.6773939e-02
  3.0352983e-01
  6.9083774e-01
  1.0396549e+00
 -1.6707480e+00
  3.3446923e-01
 -5.4883200e-01
 -2.2157470e-02
  1.4506847e+00
 -3.4321594e-01
  1.5157645e+00
 -4.4968006e-01
 -1.5542729e+00
 -3.8511416e-01
 -6.6279435e-01
  2.2142857e-01
  6.2958300e-01
  1.7411258e+00
 -3.4996387e-02
  6.5203375e-01
 -4.3850720e-02
 -4.8665777e-01
 -2.0593613e-01
 -3.5298789e-01
 -2.9113704e-01
 -6.9507402e-01
  6.3858020e-01
  8.2131022e-01
  7.6818520e-01
  1.2322851e+00
 -1.3572316e-01
 -9.2033374e-01
  4.2048147e-01
  2.8412670e-01
 -8.4889185e-01
 -6.7006880e-01
 -8.0410314e-01
  2.0438236e-01
 -1.7639194e-01
 -9.6208185e-01
 -3.2899305e-01
 -4.1834567e-02
  8.6970615e-01
 -1.0471890e+00
 -1.2152356e+00
  6.7327768e-01
  7.2178394e-01
 -7.9784960e-01
 -1.2074821e-01
  3.6678800e-01
 -3.9799813e-02
 -5.1762986e-01
 -1.6276171e+00
  1.1302700e+00
 -1.2209820e-01
 -1.2828821e+00
  1.1692240e+00
  1.6089467e+00
  3.7505680e-01
 -1.0436010e+00
 -5.9789103e-01
  4.8527551e-01
  9.0602899e-01
  1.7693436e-01
  5.6924617e-01
  2.7163476e-01
  4.6117883e-02
  1.7684272e-01
 -1.0196909e+00
  7.8122354e-01
  5.0344068e-01
  2.7568051e-01
  3.6521271e-02
  1.6868514e+00
  6.8009162e-01
  7.9782866e-02
 -8.2531178e-01
 -5.5615050e-01
  2.2896876e+00
  1.1076987e+00
  6.3463879e-01
 -2.1586439e-01
  1.7031547e+00
 -1.5138267e-01
  1.9129492e-01
  7.2268981e-01
  1.0278720e+00
  2.2840072e-01
  9.5258272e-01
 -1.1620681e-01
 -5.3004003e-01
  1.3169012e+00
 -1.3627778e+00
  6.3926566e-01
  2.5910923e-01
  1.2947163e-01
  4.6255168e-01
 -9.7752728e-02
 -5.7680392e-01
  6.8077081e-01
  2.8738382e-01
  7.5523430e-01
 -1.6429496e+00
  8.1172317e-01
 -1.1886868e-01
 -4.2838103e-01
 -8.6541146e-01
 -4.7725174e-01
  1.4161968e-01
  6.5096432e-01
  5.4903513e-01
  9.2760421e-02
  3.9788362e-02
  6.6647124e-01
  3.8419168e-02
 -1.1204296e-01
  8.6639601e-01
  3.2329729e-01
  6.9695193e-01
 -1.5373737e+00
  9.9136972e-01
 -1.3442872e+00
 -8.4270281e-01
  1.1944300e+00
  2.1803145e-01
  1.4132343e-01
  5.8741534e-01
  7.4490839e-01
  3.7705937e-01
  5.7864919e-02
  1.3600073e+00
 -5.6605893e-01
 -4.0547305e-01
 -2.2658385e-02
  1.3013206e+00
  2.2707339e-02
 -5.4709786e-01
 -4.7097158e-01
  4.5010865e-01
  1.5453976e-01
  6.3436687e-01
 -2.3609854e-01
  4.4833335e-01
  8.0550145e-03
  1.9523401e+00
  9.6264100e-03
 -6.0909563e-01
 -5.6321025e-01
 -8.1936157e-01
  4.6300998e-01
 -5.7961047e-01
  1.6491106e-01
  4.1510996e-01
 -1.1442776e+00
  1.8245516e+00
  1.4527941e-01
 -4.4105446e-01
 -1.3495362e+00
  7.5333858e-01
  4.9005339e-01
 -1.3128862e+00
 -1.2824464e+00
  7.8913635e-01
 -4.6660587e-01
 -3.0951917e-01
 -4.3198156e-01
 -2.2492617e-01
  2.1244588e-01
 -6.0564649e-01
 -9.7745955e-02
 -3.9339539e-01
 -9.4534051e-01
  2.9730552e-01
  3.7986892e-01
  1.9545293e+00
  2.2141215e-01
  1.7084911e+00
  4.6677560e-01
 -5.0287575e-01
  2.3742732e-01
 -4.8358589e-01
 -8.7862861e-01
  8.6385047e-01
 -2.0100114e-01
 -1.0438889e+00
  6.7846555e-01
  1.9213670e+00
  8.5936405e-02
  1.0736823e+00
 -3.9481353e-02
  1.1784000e+00
 -8.3305472e-01
 -6.5081239e-01
  9.6802402e-01
  5.4332936e-01
 -3.6024073e-01
 -3.9357372e-02
 -2.6950750e-01
 -3.1265137e-01
  3.0344424e-01
  5.4344296e-02
 -5.7148474e-01
  5.9171373e-01
 -1.2461524e+00
  5.8733398e-01
 -1.3597716e+00
 -1.6267149e+00
 -1.2223931e-01
 -7.4573106e-01
  4.3202540e-01
  2.2535751e+00
  8.6782950e-01
  3.2221246e-01
 -2.4626057e-01
 -3.0121502e-01
  1.1960926e+00
 -2.0715253e-01
 -7.5492799e-01
 -3.6162183e-01
  9.8783791e-01
 -4.5388085e-01
 -2.7323568e-01
 -8.3154988e-01
  3.9008182e-01
 -8.8866359e-01
  6.1029381e-01
 -3.4201372e-01
 -1.0327986e+00
  9.1269732e-02
 -7.6444215e-01
  1.3722531e-01
  1.8275632e-01
  3.8528469e-01
 -6.0864324e-03
 -2.7149063e-01
 -5.8279598e-01
  3.2343376e-01
  2.6614848e-01
  8.7704402e-01
  1.2147290e+00
  2.9298973e-01
 -1.2017151e+00
  5.9765762e-01
  1.1274809e-01
  1.1517717e-01
  1.3160604e+00
  7.7293918e-02
 -1.6414692e-01
 -3.5264781e-01
 -2.7988675e-01
 -1.3883986e-02
  1.1749922e+00
 -6.6351962e-01
  8.6794692e-01
  4.6139279e-01
 -4.3480921e-01
  1.4561473e-01
  1.0064989e+00
 -5.2055353e-01
 -3.2127008e-01
  7.6561797e-01
 -3.8394746e-01
 -6.5851027e-01
  1.6656866e+00
 -2.0072809e-01
 -1.9724157e-01
  1.2246118e+00
 -6.8657953e-01
  6.4825463e-01
  2.4700342e-01
  4.3666288e-01
  2.5703862e-01
 -6.9838762e-01
 -1.5262778e-02
  7.5464018e-02
 -3.6374623e-01
  2.5726321e-01
 -1.0025665e+00
 -4.1137885e-02
 -1.8550924e+00
  1.6115440e-02
 -1.1635721e+00
 -3.2599755e-02
  4.3507431e-02
  7.1080869e-01
 -5.2259904e-01
  7.4510932e-01
 -2.5262877e-01
  1.5909878e+00
 -3.9390340e-01
  5.0785255e-02
  1.1809466e+00
 -9.5175743e-01
 -3.1295368e-01
 -5.7843488e-01
 -1.3999441e+00
  7.9520392e-01
 -1.9490051e-01
 -1.9798985e-01
  1.2522903e-01
  7.2555006e-01
  1.0509503e-01
  7.7696794e-01
 -1.4342661e+00
  5.2171409e-01
  6.1184835e-01
 -1.2409697e+00
 -3.8757268e-01
 -4.7849432e-01
 -1.6998449e-01
  1.2633666e-01
  6.4063585e-01
 -2.0038533e-01
 -1.1623634e+00
  1.7782992e-01
  2.9776099e-01
  2.4078847e-01
 -6.9083017e-01
  2.1761753e-01
  1.1228025e-01
  1.1835738e-01
  5.7871139e-01
 -4.7850903e-02
 -2.3041458e+00
  1.0582169e+00
  1.0723290e+00
  8.6869621e-01
 -1.6379724e+00
 -1.0264250e+00
 -1.0808710e+00
  6.0892153e-01
  5.0513230e-02
  9.0509999e-01
 -2.3714310e-02
  8.0188042e-01
 -6.0767126e-01
  2.3143886e-01
 -7.9854079e-02
  3.5489741e-01
 -2.1699573e-01
  5.4538381e-01
 -8.0271649e-01
 -5.7793313e-01
 -9.9667269e-01
  3.7131223e-01
  2.7495226e-01
 -1.0680119e+00
 -6.9666129e-01
  6.4613271e-01
  6.6897564e-02
 -1.0727385e+00
  4.3625426e-01
 -1.7121195e+00
 -1.2159420e-01
  1.7034845e+00
 -1.7264061e-02
 -2.6028362e-01
 -3.6081505e-01
  5.3490591e-01
  8.0702126e-02
 -3.9855471e-01
  1.1665869e+00
 -4.1119218e-01
  6.8188474e-02
  6.3756502e-01
  3.5336477e-01
  1.5444349e+00
  1.9130950e-01
 -7.4112588e-03
 -6.3237309e-01
 -5.3720796e-01
 -1.4277354e-01
 -6.9416368e-01
 -1.2501645e-01
  2.2111970e-01
  4.3401632e-01
 -4.8043039e-01
  8.8247925e-01
  3.8098422e-01
  6.7620331e-01
  1.1605008e+00
  6.9584554e-01
  6.4438963e-01
  3.1633088e-01
  9.9440801e-01
  9.1685697e-02
 -6.4695247e-02
 -1.9762671e-01
  5.8685535e-01
 -7.6268321e-01
  3.2275563e-01
 -1.0763084e+00
 -3.3337024e-01
  1.3185560e+00
 -6.0502261e-01
  1.0624421e+00
 -4.1213334e-02
  8.5821055e-02
  4.6733081e-01
 -7.7809530e-01
  1.0837735e-01
 -9.3719371e-02
  1.2723978e+00
  1.3340545e+00
 -6.6827667e-01
  1.0590770e+00
 -8.4860015e-01
  4.6487260e-01
  5.6676078e-01
 -1.8563405e+00
  1.2739910e+00
  9.7007304e-01
 -1.8342415e+00
  3.9260682e-01
  7.3342168e-01
  6.4619184e-01
  1.3085247e+00
 -3.4033147e-01
  9.9706185e-01
 -1.1579466e+00
  1.8981344e-01
 -3.7013623e-03
 -5.0494581e-01
 -2.7547926e-01
 -4.2246053e-01
 -1.0371882e+00
 -1.5358819e-01
  5.9332516e-02
  8.5373789e-01
  1.7444395e-01
 -5.0782061e-01
  4.5320592e-03
  1.4784988e+00
 -5.1479429e-01
  5.7396787e-01
  8.5247719e-01
 -3.4699783e-01
 -3.5169429e-01
  4.2309576e-01
 -7.3259515e-01
  7.5329721e-01
 -5.0057799e-02
 -6.4119375e-01
  2.5296772e-01
 -3.3824405e-01
  4.0097922e-01
 -2.8399479e-01
 -4.6420988e-01
  6.1306047e-01
 -4.5942745e-01
 -1.2147296e-01
  4.0608478e-01
 -8.3463883e-01
 -6.6822541e-01
  3.7228948e-01
 -4.6645647e-01
 -1.7876790e-01
  9.6590626e-01
  1.3439176e+00
 -6.0477543e-01
  1.7808378e-01
 -4.2632291e-01
 -9.4569391e-01
 -7.8095132e-01
 -2.1884900e-01
 -1.4881918e-01
 -8.4746063e-02
 -1.0452765e+00
  6.2249929e-01
  1.2182148e+00
 -5.6610048e-01
  2.9537380e-01
  1.0895183e-01
  1.7108791e+00
 -2.3746979e-01
  1.3673570e+00
  5.2123338e-01
 -6.9427890e-01
 -7.3518485e-01
  2.6554710e-01
  1.0509658e+00
  4.7102222e-01
 -2.4481009e-01
  1.2726001e+00
 -2.8709328e-01
  4.1331761e-03
 -1.6676657e+00
  2.1783535e+00
  1.2187890e+00
 -1.6141387e+00
 -1.0656472e+00
 -4.8630375e-01
  7.2920889e-01
  8.3835107e-01
  2.8914508e-01
 -1.2927573e+00
  1.4505190e-01
  1.6253642e+00
  2.9612488e-01
 -1.7875190e-01
 -1.4314139e-01
  1.0322589e-01
 -1.6383178e+00
  1.9388433e-01
  8.1183594e-01
 -6.7401803e-01
 -4.4943535e-01
  6.4987347e-02
  1.5707918e+00
 -1.4385821e+00
 -3.1277534e-01
  1.7043622e-01
  3.2699224e-02
 -1.0088805e-01
 -4.0698242e-01
  4.7887683e-01
 -1.3249650e+00
 -3.1627184e-01
  1.0325480e+00
  3.3113286e-01
 -5.3903335e-01
 -1.7861598e+00
  1.8438268e-01
 -6.9677246e-01
  4.3361074e-01
  1.1023511e+00
 -8.2103854e-01
 -4.2819363e-01
 -1.0921491e+00
  5.0501281e-01
 -5.6505197e-01
 -7.3467769e-02
 -4.6422717e-01
  2.5690821e-01
  1.4475562e-01
 -1.3129660e+00
  5.9410602e-01
 -7.6016635e-01
  1.5708579e-01
 -1.3258386e-01
 -3.2755852e-01
  5.4251140e-01
 -3.0098632e-01
  1.3205121e-01
  9.7942251e-01
  7.7413753e-02
  1.3720236e+00
 -4.0123707e-01
 -1.6640438e-01
 -1.2042220e+00
 -2.6349396e-01
 -3.6288422e-01
 -6.2584859e-01
  2.2515403e-01
  4.2126530e-01
  1.6120985e+00
  2.5475624e-01
 -1.0467311e+00
 -3.8969761e-01
  3.8364211e-01
 -3.4251916e-01
  1.4461967e-01
  8.8016719e-01
 -4.5345682e-01
 -2.4881168e-01
 -1.4715040e+00
  3.4237561e-01
  3.3537525e-01
 -1.3116041e+00
 -4.1444814e-01
  1.2718607e+00
  5.3966093e-01
 -4.7856754e-01
  1.7739645e+00
 -1.1920574e-01
 -4.1156185e-01
  3.2240185e-01
 -1.2142241e+00
 -8.0711448e-01
  1.5391802e+00
 -3.4655401e-01
  3.4177098e-01
 -7.0771933e-01
  7.0942789e-01
  9.0041161e-02
 -9.8129553e-01
 -1.4431682e+00
 -1.9782285e-01
 -1.0974350e+00
 -7.3447394e-01
 -3.0751461e-01
 -1.7912118e-01
 -7.8696412e-01
  2.1195899e-01
 -3.1245944e-01
 -1.6518603e-01
  1.1831495e+00
  1.2353164e+00
 -1.1994561e+00
 -1.7807301e+00
 -4.0585622e-01
 -4.9797076e-01
  4.9748811e-01
  2.4904227e-01
 -1.2350638e+00
  1.5203504e-01
 -6.1921310e-01
  7.1163559e-01
 -3.2361215e-03
 -2.3894665e-01
 -5.7269144e-01
 -1.1716061e+00
  2.2527136e-01
 -4.2467818e-01
 -9.8077291e-01
 -1.9302504e+00
 -1.4733142e+00
 -1.0156138e+00
  7.4674326e-01
 -7.0208198e-01
 -4.0264162e-01
 -8.8571286e-01
  5.9497756e-01
 -9.2702502e-01
 -5.3934115e-01
  7.9476058e-02
 -9.4070405e-01
 -8.2115099e-02
  1.0722051e+00
 -6.0631633e-01
 -5.2517289e-01
  6.5962654e-01
  3.6952701e-01
 -7.2953469e-01
  9.3324286e-01
 -5.8633459e-01
  7.0022172e-01
 -6.4534080e-01
 -1.1189687e+00
  1.4970580e-01
 -1.9305217e-01
 -3.9751321e-01
  1.1316189e+00
 -6.0076433e-01
 -2.1567945e-01
  7.6105505e-01
  9.9111784e-01
 -1.3138323e-01
 -1.4267120e-01
 -2.9158959e-01
  1.5890069e-01
  4.0501785e-02
  1.3628049e-01
 -1.6146631e+00
 -2.3308885e-01
 -1.1749620e+00
 -9.3333089e-01
 -5.0779711e-02
  1.2588421e+00
 -1.9277498e-01
  1.5036790e-01
 -4.6405131e-01
 -1.1557500e+00
  3.0662054e-01
  3.6929402e-01
  1.0482266e-01
  4.2521757e-01
  2.7739081e-01
  1.9159852e-01
  4.3750876e-01
 -9.9433106e-01
  4.2825705e-01
 -2.3438685e-01
 -4.9959677e-01
  6.1648595e-01
  4.2055541e-01
  3.0231750e-01
 -3.2587189e-02
  6.0916007e-02
 -3.2196081e-01
 -1.1265253e+00
 -1.6233250e-01
  1.4401644e+00
 -2.0128155e-01
  2.6341712e-02
  2.6870990e-01
  6.1431980e-01
 -4.1204178e-01
 -7.2259754e-01
  4.9866074e-01
 -1.5804772e+00
 -1.1335515e+00
 -8.2019275e-01
 -8.3014745e-01
 -2.3195140e-01
  6.7928803e-01
 -2.2098756e-01
 -1.0888908e+00
  3.2203269e-01
  1.1587852e+00
 -7.0249832e-01
  2.0416816e-01
  7.7508610e-01
  1.3962967e+00
 -3.5934711e-01
 -8.7613159e-01
 -5.3460222e-01
 -1.4371283e+00
  5.8591294e-01
 -8.4910560e-01
 -2.2647264e+00
 -5.8700806e-01
 -7.3047143e-01
  1.5901393e-01
  6.4477026e-02
  3.0302671e-01
  1.0880685e+00
  6.7289643e-02
  2.2442756e-02
 -1.2500758e+00
 -4.0727783e-02
 -1.2484327e-01
 -6.3461041e-01
  4.2331788e-01
  1.1308799e+00
  1.3113818e+00
 -5.8433753e-01
  9.7365493e-01
 -7.8642225e-01
 -1.0494089e-01
  6.1657834e-01
 -4.2125401e-01
  2.1721329e-01
  4.4257867e-01
  1.3705082e-01
 -9.7306752e-01
 -1.1352301e+00
  1.3469213e-01
 -1.1161311e+00
  6.6284969e-02
 -2.1293300e-01
  9.4996256e-01
  5.0617825e-02
  3.4093636e-01
  7.5228381e-01
 -5.2592540e-01
  1.1403997e+00
 -2.3984334e-01
 -8.9708529e-02
  3.3772650e-01
  2.9754612e-01
  8.4957081e-01
 -1.3701385e-01
 -1.2404031e+00
 -1.3356104e+00
  3.4090403e-01
  7.3024161e-02
  1.4610232e+00
  2.5486246e-01
 -2.4426527e-01
  8.0273616e-01
  8.6367178e-01
  1.0083709e+00
  6.6494852e-02
 -5.1406127e-01
  2.9877707e-01
 -1.4472869e-01
 -1.0136988e+00
  1.1125114e-02
  3.8131380e-01
  4.5002844e-02
  1.1669611e+00
  9.8280138e-01
  6.1351772e-02
 -9.0334845e-01
  3.0561367e-01
  8.8029973e-02
 -8.7611154e-02
 -2.4951777e-01
 -2.0020568e-01
  1.1965758e+00
 -5.7247376e-01
 -1.9052836e-01
 -4.2128581e-01
  2.8929868e-01
  5.4962653e-01
 -3.8004407e-01
 -9.5950347e-01
  8.8464612e-01
 -2.4558988e-01
  2.8813714e-01
 -4.4456914e-01
 -7.7963367e-02
  5.0903183e-01
  3.0496405e-02
 -2.2425123e-01
 -9.2352372e-01
  1.3389846e-02
  1.7496063e+00
 -1.1192558e+00
  3.9849359e-01
  1.3834435e+00
 -9.4846463e-01
 -4.7917938e-01
  2.5820327e-01
 -7.5100738e-01
  7.3560452e-01
  1.0374255e+00
 -4.2789793e-01
 -1.9852683e-02
  7.0323890e-01
 -7.3262930e-01
 -1.2206973e+00
 -4.8093328e-01
  8.6055762e-01
  2.2437145e-01
 -4.1178763e-01
  5.0246652e-02
 -9.3909091e-01
 -1.3405412e-01
 -8.4040290e-01
 -4.7152136e-02
  2.4405912e-01
 -1.7488928e+00
 -8.5308653e-01
  2.6947179e-01
 -2.7659124e-01
  1.2238735e+00
  1.2691640e+00
  4.8777002e-01
 -1.1750610e+00
  1.3747066e-01
  4.3882969e-01
 -3.7441816e-02
 -1.2765964e+00
  3.9905205e-01
  2.2484423e-01
 -7.1336174e-01
  1.2952426e-01
  6.8241775e-01
 -5.3639275e-01
  3.5190850e-01
 -3.5369989e-01
  4.4595789e-02
 -1.0307939e+00
  8.3795153e-02
  8.8160509e-01
 -9.3869853e-01
  5.4133713e-01
 -8.4833676e-01
 -5.5364043e-01
 -1.0661529e+00
  1.3601701e-01
 -7.1658635e-01
 -5.7690626e-01
 -1.9502321e-01
  1.1172510e+00
 -2.7683780e-01
 -2.6320139e-01
 -2.5729573e-01
  5.7272351e-01
 -7.3493534e-01
  2.6555263e-02
 -1.9275372e-01
  1.6092653e+00
 -2.5140473e-01
 -1.2580441e+00
 -4.9128076e-01
 -6.9026357e-01
 -1.9745451e-01
 -1.3284484e+00
  7.0892245e-01
 -8.4214813e-01
 -3.5338197e-02
 -6.5807080e-01
 -6.1258304e-01
  4.4610104e-01
 -4.3913218e-01
 -4.7742349e-01
  5.8203541e-02
 -6.5505236e-01
 -1.9543473e-01
  2.8755778e-01
  8.7696803e-01
 -4.8104647e-01
  1.2929776e-01
 -1.4182168e+00
  1.2281538e+00
 -8.4593594e-01
 -1.0361538e-01
  3.1956422e-01
  3.5914907e-01
  3.1382918e-01
  1.7445649e-01
 -8.2750201e-01
  1.0007975e-01
  6.5958011e-01
 -5.1821870e-01
 -1.0700873e+00
 -1.1152331e+00
  3.6222190e-02
  2.4504671e-02
 -1.1010964e+00
 -2.4430208e-01
  5.6235510e-01
 -8.0852103e-01
  9.1860402e-01
 -3.3936915e-01
 -4.4588271e-01
 -7.2790414e-01
  1.2336217e+00
  2.5754008e-02
 -7.0393048e-02
 -1.5759842e-01
  9.3287909e-01
  7.4868757e-01
  9.6117914e-01
 -2.4796931e-01
 -8.7081575e-01
  6.0704899e-01
  6.1260760e-01
 -9.0339082e-01
  1.3259023e+00
 -9.0048707e-01
  3.5919613e-01
  1.1060730e-01
  1.0186653e+00
 -2.3433951e-01
 -8.7992442e-01
 -4.5835078e-01
 -2.2171606e-01
 -6.9532663e-01
  3.8123071e-01
  4.5029333e-01
  1.4739114e-01
 -5.2867883e-01
 -5.5066681e-01
  2.8061113e-01
 -1.7815937e+00
  3.8694915e-01
 -4.0113142e-01
  2.7243230e-01
  6.3819483e-02
  1.2518527e-01
 -9.9304861e-01
 -7.2480983e-01
 -4.9231231e-01
  7.0260900e-01
  8.8373803e-02
  1.3226994e+00
 -5.8242953e-01
 -1.8886091e-01
 -1.0921094e+00
  2.1609469e-01
  1.2779710e+00
  2.3597865e-01
 -2.4511002e-01
 -2.5444752e-01
 -7.2783077e-01
  6.1573631e-01
  1.0573124e+00
  9.9678153e-01
 -5.5985457e-01
 -5.9040821e-01
 -1.8008687e-01
 -8.8138103e-02
 -7.1915084e-01
  2.6916093e-01
 -1.1638689e-01
  6.5130138e-01
 -5.9369230e-01
  2.1479314e-02
  8.2202114e-02
  2.4764933e-01
  5.2399987e-01
  5.5291867e-01
  6.4738625e-01
 -4.7169873e-01
 -1.1882000e-01
 -3.7441021e-03
  5.8283347e-01
  5.9536137e-02
 -1.6190805e+00
 -3.0104068e-01
  1.7028904e+00
 -9.8026776e-01
  7.8034818e-02
 -6.4486068e-01
  1.6685392e-01
 -2.6127484e+00
 -1.1095050e-01
  1.0470173e+00
  3.7962481e-01
 -5.0420552e-01
  3.7433651e-01
 -4.6427384e-02
 -8.1687503e-02
  1.3686588e+00
  6.0285217e-01
 -4.5908326e-01
  5.0544500e-01
 -1.9411774e-01
  1.1628189e-02
  1.1789961e-01
  9.5121765e-01
 -4.5512640e-01
  1.2668936e+00
  2.7129596e-01
  2.7941546e-01
  1.3675243e+00
 -6.1652040e-01
  1.3829654e-01
  1.0100517e+00
  5.5908090e-01
  1.5482216e-01
 -4.0639198e-01
 -9.7497773e-01
 -3.1028306e-02
 -3.2960168e-01
 -7.8837049e-01
  2.6097733e-01
 -1.2646111e+00
  3.9053142e-01
 -1.7130002e-01
 -5.2132684e-01
 -6.8857199e-01
 -5.0192261e-01
 -9.4098353e-01
 -4.1001615e-01
 -1.7000344e-02
 -6.2092191e-01
 -7.1002460e-01
  4.6727085e-01
  1.3473917e+00
  1.5031179e+00
  1.0687134e+00
 -1.9955382e-02
 -1.7593852e-01
 -7.6263285e-01
 -1.4836678e-01
  1.2797917e-01
 -5.2938545e-01
 -1.3359603e+00
  3.1270909e-01
  6.8783559e-02
 -1.7300600e-01
 -1.1683888e-01
 -6.8460417e-01
  7.2410583e-01
  4.0194219e-01
  8.8642806e-01
  1.2551497e-01
 -1.2850405e+00
  9.0231329e-01
  6.9422811e-01
 -1.6787639e-01
 -7.8620501e-03
 -1.3841866e-01
  1.6548119e-02
  1.8393452e-01
 -1.5226665e-01
 -1.4740036e-01
  3.9388046e-01
  2.9423124e-01
  3.3606753e-01
  1.5683765e+00
  1.1213332e-01
  9.9214174e-02
  1.7131790e+00
 -5.6183286e-02
 -6.2504184e-01
  1.2971524e+00
  8.7997627e-01
 -6.9944733e-01
  7.5117230e-02
 -5.9822287e-02
  3.4428930e-01
  1.4649162e+00
 -1.0942991e+00
  3.7812603e-01
  8.7765080e-01
  1.1522179e-01
  2.2125959e-01
 -6.6827101e-01
  1.0136979e+00
 -8.3771616e-01
 -1.2522934e-01
  4.4253822e-02
 -2.1811342e-01
  3.3492211e-01
 -1.5770815e-01
 -2.5016677e-01
 -1.9367085e-01
 -7.3325181e-01
  6.8819313e-04
 -7.1388239e-01
 -1.5767982e+00
  8.1018853e-01
 -1.5244040e-01
 -5.6908529e-02
  6.8024725e-01
 -7.1945496e-02
  1.2656246e+00
 -6.5653151e-01
  2.8077459e-01
  6.7824614e-01
  1.3058438e+00
  1.6069205e+00
  9.5856667e-01
  1.4814825e+00
  1.0385617e+00
 -1.9436186e-02
  3.9397743e-01
  1.4950306e-03
 -1.4070675e+00
  5.1045382e-01
 -1.3341058e+00
  1.0719533e+00
 -1.9535551e-02
 -2.1233566e-01
  2.8055379e-01
  7.9229861e-01
 -6.9406706e-01
  6.1544460e-01
  2.8226364e-01
  7.6495415e-01
  7.5247206e-02
  1.4313138e+00
  4.7670341e-01
 -1.8107562e-01
  1.4994474e-01
 -8.1881620e-02
 -3.2980251e-01
  1.5596169e-01
 -2.5559261e-02
 -3.1156275e-01
  4.5106504e-02
 -1.5214039e-01
 -1.9875675e-01
  2.1618758e-01
  9.0005767e-01
  1.9482921e-01
  1.2395827e+00
  9.1390544e-01
 -1.2674342e+00
 -2.8790590e-01
 -7.2983122e-01
 -4.3098173e-01
 -8.2406700e-01
 -9.2593980e-01
  8.3892830e-02
  9.7958721e-02
  9.8338711e-01
  4.6760169e-01
 -1.0449418e+00
 -2.2276356e+00
  3.2662809e-02
  6.7794675e-01
 -3.1682861e-01
 -1.4806075e+00
 -6.4052469e-01
  3.1282201e-01
  1.0657064e-01
  4.2186883e-01
  1.0769156e+00
  1.2698723e-01
  3.8932824e-01
 -3.8747661e-02
 -1.7890873e+00
  3.3199799e-01
  4.0866762e-01
  3.1254187e-01
 -2.9407397e-02
 -4.6451685e-01
  2.1192946e-01
  1.0500023e+00
  3.3104759e-01
  1.7893265e-01
 -8.1641108e-01
 -1.7948796e-01
 -5.9527200e-01
 -4.3135524e-01
  1.9419242e-01
 -6.4060710e-02
 -1.5262321e-01
  2.1080905e-01
  1.1375216e+00
 -8.7194258e-01
  5.6884146e-01
 -2.0614328e+00
  3.7175411e-01
 -7.5778830e-01
  3.4481913e-01
 -3.0025339e-01
 -1.5385690e-01
 -4.3218327e-01
  9.6091157e-01
 -2.8462908e-01
  1.2428403e-01
 -1.0225134e+00
 -2.0021362e+00
  8.7850565e-01
 -9.1201419e-01
  2.0646575e-01
 -7.1723986e-01
  1.9659240e+00
  1.1295760e+00
  6.2239093e-01
  1.6129391e-01
  2.8886098e-01
 -1.5923283e-01
  7.4747944e-01
  8.5399431e-01
  1.0827054e+00
  3.3014539e-01
 -2.9094312e-01
  4.9792489e-01
 -6.6208673e-01
 -3.7040836e-01
 -2.3608603e-01
 -4.5099801e-01
 -1.7608151e-02
 -5.7364106e-01
  2.2724333e-01
  4.2868590e-01
  4.4412979e-01
  3.6657032e-01
 -2.2142079e-01
  6.8532443e-01
  1.3420533e+00
 -7.3241788e-01
  7.5226700e-01
 -2.9323393e-02
 -9.6490604e-01
 -2.4127595e-01
  1.0648527e-01
 -1.0840274e-01
 -8.4431559e-01
  1.5191270e-01
 -8.7115061e-01
  1.0100468e+00
 -4.4351825e-01
 -4.5822957e-01
  1.6218795e+00
 -8.1425977e-01
 -4.2053059e-01
 -1.0038850e-01
 -5.6392419e-01
  1.9354537e-01
  1.2710951e-01
  2.6544091e-01
  8.9282058e-02
 -1.6517697e-01
  8.2480565e-02
 -1.0882687e-01
  1.1222930e-01
 -4.2258212e-01
 -6.8364674e-01
 -1.4061621e-01
  4.2219028e-01
 -1.9565934e-01
  1.3322175e+00
 -7.7165627e-01
 -1.0416753e+00
 -2.2527269e-01
  2.1092024e-01
 -8.9773697e-01
 -1.6968473e+00
 -7.4723959e-02
 -8.2018644e-01
  1.0504248e+00
  2.2064465e-01
 -4.4212651e-01
 -1.8083509e+00
 -2.9084480e-01
  3.4863475e-01
  9.1080052e-01
  1.2327112e-01
  2.5917792e+00
 -1.5285680e+00
 -6.9752192e-01
  4.0440243e-01
  5.6223869e-01
 -1.5698868e-01
 -1.0491478e+00
  1.7327361e+00
 -3.1330839e-01
 -1.8636155e-01
  1.5623602e-01
  5.6209254e-01
  4.1818386e-01
  1.5211080e-02
 -6.5767503e-01
  4.2719999e-01
  7.1986479e-01
  8.4506631e-01
  6.7454308e-01
 -1.1479918e+00
 -2.2524066e+00
 -1.9671680e-01
  1.0423610e-01
 -8.4680027e-01
  9.2457213e-02
  4.6886459e-01
  6.2186432e-01
 -6.4217210e-01
 -1.4316584e+00
 -1.3564302e+00
  2.5690183e-01
  1.0418407e+00
 -3.0002624e-01
 -3.5486856e-01
  6.0876882e-01
 -1.4978382e-01
 -1.4327459e+00
  8.5850167e-01
 -1.0560010e-01
  1.4701689e+00
 -2.9322827e-01
  1.0618318e+00
 -1.1808740e-01
  1.0798893e+00
 -3.0708247e-01
  1.1502110e+00
  4.8335340e-02
 -3.5842481e-01
  4.4669855e-01
 -5.1160288e-01
  5.6846911e-01
  1.3524203e+00
  1.5637629e+00
 -7.9434288e-01
  7.0987076e-01
 -3.8898778e-01
  4.0304326e-02
  8.1944484e-01
  6.2367809e-01
  8.2810253e-02
 -1.6932187e+00
 -1.4660447e+00
 -7.3948270e-01
 -3.6799011e-01
 -1.6210971e+00
 -7.8512084e-01
 -1.9108495e-01
  7.6052380e-01
 -1.9745567e+00
  6.7984837e-04
 -4.1958162e-01
  5.3897303e-01
 -4.6737379e-01
 -5.7953674e-01
 -1.8411236e+00
  4.5802504e-01
  3.8235408e-01
  1.6462250e-02
 -8.5218832e-02
 -5.4812139e-01
 -3.1618661e-01
 -9.1446385e-02
 -3.8332384e-02
 -4.9383414e-01
  3.2198909e-01
  5.0736082e-01
  8.0026370e-01
  1.0238603e+00
 -6.4472449e-01
 -8.4845275e-01
 -7.4516171e-01
 -2.7822411e-01
  4.5171529e-01
 -8.7506366e-01
  1.4111584e+00
  3.7901604e-01
 -3.5381594e-01
  2.3199727e-01
  9.4412798e-01
  6.5471697e-01
 -6.6447657e-01
  3.0833945e-01
 -5.7898706e-01
 -2.4290721e-01
  1.1250279e+00
 -3.1650132e-01
 -5.7652004e-02
 -6.2682229e-01
  5.7049894e-01
 -6.8765849e-01
  7.3166949e-01
  9.4463944e-01
  3.8320547e-01
 -7.4947435e-01
  1.6254765e+00
  5.2188474e-01
 -7.6291549e-01
  9.3160892e-01
 -6.6161972e-01
 -3.4738278e-01
 -1.3040209e-01
 -9.7716480e-01
  1.1275086e+00
  4.4782966e-01
 -4.1009453e-01
  1.7868917e-01
  1.4391153e-01
  6.0224307e-01
  9.2056984e-01
  5.9170502e-01
  1.8708885e-02
 -7.8150100e-01
 -2.7858928e-01
  3.7615311e-01
  2.3957768e-01
 -6.5409107e-04
  1.1518020e-01
 -1.2431252e+00
  1.3483266e+00
 -2.9196686e-01
 -4.5715991e-01
  1.1235229e-01
 -5.0844442e-02
  1.2794021e-01
 -2.4778000e-01
  5.9426796e-01
 -4.1855371e-01
  4.3492219e-01
 -6.5734375e-01
 -9.0003192e-01
 -5.9601430e-02
  1.5038031e-01
  1.8955584e-01
  2.4652828e-01
  9.4123149e-01
  1.4892380e+00
 -9.6443033e-01
 -3.8171008e-01
  6.5700537e-01
 -2.2483163e-01
 -8.8803446e-01
 -4.7578683e-01
 -1.1120930e+00
  8.7797093e-01
  5.0893587e-01
  7.9366541e-01
 -6.3693434e-02
 -5.1283032e-01
  2.0500526e-02
 -5.4119074e-01
  1.1720579e+00
 -6.7066836e-01
  1.6645777e+00
  2.3799272e-01
 -1.9041101e+00
 -4.1648367e-01
 -3.9123014e-01
  1.8419384e+00
  4.0306985e-01
 -4.0343335e-01
 -5.6572539e-01
  6.7084575e-01
  6.4576320e-02
  5.5069256e-01
 -5.1773906e-01
 -9.3784249e-01
  8.0199921e-01
 -1.4777647e+00
 -1.1396278e-01
  7.5029969e-01
 -1.4079655e+00
 -3.0003962e-01
  9.6801144e-01
  1.3630650e+00
  4.2336139e-01
 -7.7281529e-01
 -4.6949556e-01
  5.2486366e-01
 -9.2539191e-01
  9.2527556e-01
 -1.8617141e-01
 -7.5912356e-01
  9.5182449e-01
 -1.2111392e-01
  3.0735123e-01
  6.4631552e-01
  6.2685144e-01
  3.8447714e-01
 -1.8156379e-01
  7.6813258e-02
 -1.5758165e+00
 -3.7417236e-01
  1.3774332e-01
  9.0448952e-01
 -7.0499802e-01
 -1.0535126e+00
  4.0129519e-01
  1.1119382e+00
  1.2911119e+00
  1.2913731e-01
  4.7483426e-02
  4.3176097e-01
  5.7349741e-01
  8.3837688e-02
 -5.6600630e-01
 -5.3383094e-01
  1.0786375e+00
 -9.9011546e-01
 -1.5988261e-01
 -8.4917432e-01
 -8.2919645e-01
 -9.4811223e-02
 -2.0894550e-01
  7.5118613e-01
  1.1084582e-01
  2.8893372e-01
  2.5185513e-01
  3.3646658e-01
  6.0058856e-01
  3.9269072e-01
  3.6612639e-01
  6.3634783e-01
 -1.3229566e+00
 -1.2635834e+00
  7.8816557e-01
 -2.9515150e-01
  7.1477783e-01
 -7.3900324e-01
  2.4298784e-01
 -3.2966059e-02
 -1.9073310e+00
  3.4264714e-01
  5.0861871e-01
  1.8605562e+00
  2.9871592e-01
 -6.4329511e-01
 -7.8560883e-01
 -1.3801804e+00
 -4.2703015e-01
 -4.5767778e-01
  3.6740151e-01
  7.4317431e-01
  1.9758272e+00
  1.1519769e+00
  3.5237697e-01
 -8.1523824e-01
 -3.2393724e-01
  2.5872397e-01
  1.1671723e+00
 -1.4482694e-02
  3.9938164e-01
  1.0847139e+00
 -9.5938846e-02
  5.1345980e-01
  1.0675565e+00
 -9.6044324e-02
  1.3006761e+00
  1.7919592e+00
  3.4796646e-01
 -2.8094855e-01
 -1.3405591e-01
 -1.4560810e+00
  6.4989692e-01
  1.0118550e+00
 -8.9768970e-01
  3.9749932e-01
  3.5850364e-01
  8.6637698e-03
 -1.2384228e+00
  8.2290417e-01
 -1.4720964e-01
  9.0976715e-01
  9.1940397e-01
 -1.9870700e-02
  7.1420735e-01
 -3.9096296e-01
  1.3832935e+00
 -1.0121347e+00
  4.6993268e-01
  6.9678235e-01
 -1.6178451e-02
 -2.2493967e-01
  8.3401650e-01
 -1.8219271e-01
 -2.3007344e-01
 -3.4925592e-01
  4.1735023e-01
 -2.3622373e-01
  9.2470294e-01
 -1.7622203e-01
 -7.7110124e-01
  3.3080101e-02
 -1.1229768e-01
 -4.1788417e-01
 -3.6257751e-02
  4.0393981e-01
 -5.4933381e-01
 -7.2324890e-01
  6.6439664e-01
  9.3892461e-01
 -1.2656819e+00
 -4.2533875e-01
  1.5559991e-01
 -1.6496983e+00
  1.2829140e+00
 -1.3011683e+00
 -5.2603375e-02
  1.3295943e+00
  1.2086344e+00
  5.7516605e-01
 -1.1534754e+00
  4.9433339e-01
 -2.4352428e-01
  2.8858340e-01
 -4.2422527e-01
  8.7309259e-01
 -7.7034700e-01
  5.6118453e-01
 -6.4853555e-01
 -1.1117877e-01
 -6.7826188e-03
  2.2575061e+00
 -2.3729065e-01
 -1.4354248e-01
 -5.1007771e-01
 -6.7668773e-02
 -6.2378687e-01
 -1.9514926e-01
  1.0142285e+00
 -1.6348536e-01
 -3.9605018e-01
  4.9442116e-02
 -3.7378263e-01
  3.9091137e-01
  1.8592112e-01
 -1.0469687e+00
 -1.3351576e+00
  2.0660153e-02
  2.4313897e-01
 -1.0917975e+00
 -6.1092758e-01
 -1.1473222e+00
 -1.3484685e+00
 -2.0454798e-02
 -1.1667342e+00
 -2.7983460e-01
 -8.1267148e-01
  4.3250793e-03
  6.3527191e-01
 -7.4480289e-01
 -3.2314414e-01
 -9.4143766e-01
  9.7426492e-01
  6.4762443e-02
  4.0733743e-01
 -5.6885308e-01
 -6.1008000e-01
 -3.4420338e-01
 -5.3913772e-01
 -5.5957347e-01
  1.0597137e-01
 -1.4619884e-01
  3.1616056e-01
  4.0244332e-01
 -8.4335768e-01
 -9.5874214e-01
  2.9817805e-01
 -2.9860058e-01
 -1.3986396e+00
 -8.1508160e-02
  7.5668126e-01
  3.3993998e-01
 -1.1317370e+00
 -4.8887581e-01
 -4.7989473e-01
 -5.2423251e-01
 -9.3136263e-01
  9.4891363e-01
  1.7371880e-01
  1.2670090e+00
 -3.5971129e-01
 -1.0993651e+00
  1.8144606e+00
  3.2436451e-01
  8.5928321e-02
 -1.1080245e+00
  8.9635628e-01
  7.9307276e-01
 -1.5682443e+00
  6.2861353e-01
  1.0427903e+00
  6.4954114e-01
 -1.0535921e+00
  6.8347037e-01
  2.0084780e-01
  9.2496999e-02
  6.3049364e-01
 -9.7607726e-01
 -3.8844335e-01
 -6.5585367e-02
  5.6821492e-02
  1.0734222e+00
  2.9254487e-01
  3.7083504e-01
  5.6301951e-01
 -6.8164790e-01
 -3.4688700e-02
 -1.3217936e-02
  6.9197303e-01
  3.8648024e-01
  1.7541401e-02
 -4.0833905e-01
  2.8435037e-01
 -1.3334098e+00
 -5.6863368e-01
 -2.7146938e-01
  1.6061002e-01
  7.4677907e-02
 -4.4588482e-01
  1.3093654e+00
 -1.2609526e+00
  1.4418006e+00
  3.4483144e-01
  3.5310280e-01
 -1.0747706e+00
  5.3964347e-01
  2.1434873e-01
  1.0689373e+00
 -1.1427616e+00
  3.2536006e-01
  6.1902803e-01
 -5.8041531e-01
  1.4733639e-01
  1.0672918e-02
  7.5192750e-01
  7.2986078e-01
 -7.3450714e-01
  1.1581765e+00
  8.4108049e-01
 -4.4133565e-01
 -8.9424008e-01
  2.9607823e-01
  8.1679040e-01
  9.0548170e-01
  2.3389958e-01
 -3.9444602e-01
  6.7984498e-01
  6.5141886e-01
  6.4189011e-01
  9.9346209e-01
 -8.7010616e-01
  9.1573483e-01
 -1.9488874e-01
 -9.3205571e-02
  8.6165529e-01
  2.3823881e-01
  4.0418613e-01
 -5.4461873e-01
  2.4095717e-01
  1.7407960e-01
  7.3108488e-01
  2.0173588e+00
  1.8518883e-01
 -1.0529661e+00
  3.9491522e-01
  5.3061670e-01
 -8.1725711e-01
 -4.7180337e-01
  3.0113035e-01
 -1.0577260e+00
  1.4894364e+00
 -7.4675721e-01
  8.5503018e-01
  8.3126557e-01
  9.0708667e-01
  6.3409871e-01
  3.1053472e-01
  1.5219985e+00
 -1.6635145e-01
 -6.3347034e-02
  2.9906234e-01
  1.8372717e-01
 -1.3939642e+00
 -2.7335721e-01
 -1.7642778e-01
  4.5543801e-02
  4.5179866e-02
 -1.4397284e+00
 -1.4170655e+00
  1.9554859e-01
 -2.1775089e-01
 -4.9346551e-01
  1.7190376e-01
 -1.3103710e+00
  1.4040850e+00
  7.2575659e-01
 -1.2170922e+00
  3.6748934e-01
 -7.1075952e-01
 -3.6861020e-01
 -9.9185640e-01
 -6.6025662e-01
 -5.7622129e-01
  6.1563772e-01
 -6.2450534e-01
 -1.1005179e+00
 -8.6891758e-01
  2.4814378e-01
 -9.2355293e-01
 -3.3933216e-01
 -3.5937291e-01
  9.4599880e-02
 -1.1720389e-02
 -2.4329388e-01
  1.0000298e+00
  1.1901157e+00
 -2.2527802e-01
  6.4128196e-01
  2.9664028e-01
  4.7234640e-01
  1.2895763e+00
  1.3554212e-01
 -6.2441540e-01
  5.0417066e-01
  1.2440726e+00
  5.9337324e-01
 -5.2103769e-02
 -1.2237264e-01
 -1.2079797e-01
  8.8201743e-03
 -3.9816603e-01
  2.6731306e-01
 -1.6508591e+00
  3.8195807e-02
  3.8436320e-01
  3.1773072e-01
 -1.9472383e+00
 -9.9299443e-01
  9.5234871e-01
  1.0383012e+00
 -1.3407907e+00
  5.0374752e-01
 -2.4539730e-01
 -5.5546659e-01
 -9.2436868e-01
 -8.4614813e-01
 -1.0398098e-01
 -4.1267699e-01
  1.5646322e+00
 -6.6783440e-01
  2.5490308e-01
 -6.6961348e-01
 -1.4012045e-01
 -6.8881646e-02
  1.3860674e-01
 -1.4211957e-01
 -2.6091838e-01
  6.6161312e-02
 -1.1675808e+00
 -6.8514872e-01
 -1.8514633e-01
 -1.8185937e-01
  3.9135048e-01
  5.7981372e-01
 -9.4883323e-01
 -5.6177074e-01
  9.1987216e-01
  1.3365169e+00
  2.0948644e-01
  9.9405104e-01
 -1.8109286e-01
 -1.5059358e+00
  5.0132257e-01
 -5.9737420e-01
 -3.6750850e-01
 -3.2012966e-01
  3.1985760e-01
  8.1745946e-01
  7.3261090e-02
 -5.0017502e-02
  1.1455882e-03
  3.1316939e-01
 -1.4974917e-01
  4.5969713e-01
 -3.4583592e-01
 -8.1033963e-01
  1.9222206e-01
 -7.1479216e-02
 -1.1622341e+00
  7.8260429e-02
  5.5799878e-01
 -4.2078856e-01
 -3.5430762e-01
 -1.2267543e+00
  4.0471432e-01
  1.3692046e+00
 -5.9087187e-01
  2.4308363e-01
 -9.7685057e-01
 -8.2115829e-01
  9.3370432e-01
  3.9807892e-01
  2.4776113e-01
 -7.7351195e-01
 -2.1793307e-01
  2.3848711e-01
 -6.6423684e-01
  1.5209235e+00
 -4.5335335e-01
 -8.8085115e-01
  6.6360712e-01
  2.6729363e-01
 -2.8666279e-01
 -3.9770011e-02
 -1.0024207e+00
  1.3209341e-01
  1.7899872e-01
 -1.4615753e-01
 -7.4143100e-01
  1.0518662e-01
  5.1779211e-01
 -8.4101826e-02
  3.7046573e-01
  8.3764732e-01
 -6.6959985e-02
 -1.0776005e+00
 -9.4881445e-02
 -2.5634578e-01
  5.7747871e-01
 -1.8084938e-02
  9.2902821e-01
  7.8890193e-01
  3.9803985e-01
 -7.6995051e-01
  4.5103830e-01
 -1.0569152e+00
  8.8014930e-01
 -9.1019177e-01
  8.5558480e-01
  1.4316117e-02
  6.7385517e-02
  1.4894124e+00
 -1.9019362e-01
 -6.4316326e-01
 -3.8977528e-01
 -8.5593276e-03
  3.1129664e-01
 -1.2193614e+00
 -2.8574038e-02
 -4.3066400e-01
  1.2550959e-01
  7.6424080e-01
 -5.7282764e-01
 -1.7632006e+00
 -1.1513515e+00
 -1.3500245e+00
 -9.2888004e-01
 -6.9704413e-01
 -9.2558849e-01
 -4.7641334e-01
  1.2718034e+00
  3.9867410e-01
 -2.8801346e-01
  5.7039076e-01
  1.1968554e+00
  1.4312068e-01
  6.3427192e-01
 -6.3898909e-01
 -7.3602045e-01
  2.9152097e-02
 -5.2029240e-01
 -1.6918018e+00
  8.6833966e-01
 -6.9432616e-01
  1.1119602e-01
 -5.6033641e-01
  1.5698925e+00
 -6.1303303e-02
  1.9183466e-01
  6.1405134e-01
 -3.0111050e-02
 -1.4369353e+00
  1.9020267e+00
  2.6051751e-01
  7.1183258e-01
 -1.2379315e+00
 -1.8677148e-01
 -1.1956055e+00
 -6.4338499e-01
 -1.5750633e+00
 -2.0974870e-01
 -3.1227652e-02
 -2.7660197e-03
 -3.8731661e-02
 -9.4895995e-01
 -3.8329920e-01
  6.9049394e-01
 -8.5668236e-01
 -6.8740621e-02
  2.9060379e-01
  5.2560329e-01
  8.2983863e-01
  1.4830618e+00
  1.1996596e+00
  1.2269635e+00
  4.3267360e-01
 -4.6739179e-01
  5.4465055e-01
  4.0394917e-01
  3.2042772e-01
 -5.8503461e-01
 -1.0651149e+00
 -7.0220047e-01
 -1.1815372e-01
 -8.0028409e-01
  5.4987735e-01
 -1.0332055e+00
 -3.8654491e-01
  6.8518561e-01
  1.8533936e+00
 -8.4518176e-01
 -1.0008062e+00
 -1.2404149e+00
 -1.7056741e-02
 -5.4094148e-01
 -1.2142310e+00
  1.2381114e+00
  7.4481213e-01
  7.7970751e-02
 -3.6279455e-01
 -7.0905316e-01
 -4.2184556e-01
 -4.4081259e-01
  1.7754348e-01
  6.0170227e-01
  2.2450507e-01
 -8.0743319e-01
 -5.9485447e-01
 -7.9689944e-01
 -5.4354340e-01
  1.6961920e-01
  7.5310379e-01
  1.5879045e+00
  4.6296695e-01
 -2.3769653e-01
 -9.3203741e-01
  1.1507083e+00
  8.4397092e-02
 -9.9169302e-01
  2.1737546e-01
 -2.3160970e-01
 -1.1671809e-01
 -1.3378011e-01
  6.3571620e-01
 -3.4289256e-01
 -3.5627815e-01
  1.9263221e+00
 -1.2322525e-01
  7.1700138e-01
  6.3806272e-01
 -4.3453115e-01
  1.6167219e+00
  4.9169880e-01
  5.0798112e-01
 -1.6718075e+00
  1.5752777e+00
 -2.6933023e-01
  1.3461998e-01
 -7.3393178e-01
  1.4319488e-01
 -1.5497049e+00
 -2.9796287e-01
 -5.0920868e-01
 -8.0705750e-01
  1.1739750e+00
  8.7374792e-02
 -4.9167541e-01
  8.6830974e-01
  8.9369315e-01
  1.7064004e+00
 -3.6121899e-01
 -1.5927738e-01
  2.1904558e-01
 -1.9037384e-01
 -5.5689591e-01
 -4.5130321e-01
 -1.1824443e+00
  1.0901358e+00
 -3.3753881e-01
 -1.4880125e-01
 -6.1376709e-01
  8.8090557e-01
  1.1099029e+00
 -3.9590186e-01
 -2.6544687e-01
 -9.7863120e-01
 -1.2834735e-01
  6.7907375e-01
 -9.2596239e-01
 -2.0960839e-01
 -5.9014130e-01
  4.8522109e-01
  4.9974155e-01
  8.1214094e-01
  1.0563587e+00
  4.1958496e-01
 -1.3376170e-02
  7.8406505e-02
  3.1854221e-01
  6.3986689e-01
  4.6088453e-02
  6.9619823e-01
 -2.9398423e-01
 -1.7475258e+00
  8.1393921e-01
  1.0524648e-01
 -8.9315456e-01
  7.1785444e-01
  2.0042603e+00
  1.4743492e-01
  4.9403507e-01
  7.5023913e-01
 -7.2431296e-01
  1.2649534e+00
 -4.6568510e-01
 -1.0342058e+00
 -3.4534961e-01
 -8.2602173e-01
 -4.6433532e-01
  4.7171852e-01
  4.7694787e-01
  4.1571733e-01
  3.7795863e-01
 -9.0001547e-01
  5.7568210e-01
  6.8355525e-01
 -3.0808151e-01
  6.9643521e-01
  7.1859092e-01
 -4.8683187e-01
 -5.4438017e-02
 -1.3716018e+00
 -9.5709300e-01
  1.7164367e-01
  3.4434271e-01
  1.0230148e+00
  3.5844800e-01
 -7.6662016e-01
  1.2248010e-01
  8.5538006e-01
  1.2367906e-01
  9.6006745e-01
  7.4049944e-01
 -1.5231589e+00
  4.1242445e-01
 -5.6063712e-01
  1.3117237e-01
 -5.6061798e-01
  4.3163359e-01
  6.2052071e-01
  5.1819032e-01
  2.8109381e-01
  1.2586971e-01
 -5.6159252e-01
 -1.0725539e+00
 -7.5242764e-01
 -3.7658724e-01
 -4.1886055e-01
  5.3925699e-01
 -8.3700404e-02
 -5.9723800e-01
  4.2757931e-01
 -4.2511424e-01
  1.9110484e+00
 -1.9619353e+00
 -2.9291433e-01
 -2.8779840e-01
  2.7686891e-01
 -4.7916368e-01
 -5.1500511e-01
 -7.9803437e-01
 -1.5403505e-01
 -4.7052035e-01
  4.2087415e-01
 -6.1043644e-01
  6.3015215e-02
  1.4781909e+00
 -1.0059970e-01
 -3.0414835e-01
 -4.7417670e-01
  3.2836288e-01
  9.3118620e-01
 -5.1772743e-01
 -6.4566129e-01
  7.1947433e-02
 -9.3289018e-01
 -4.3052199e-01
  9.4010122e-02
  9.2068863e-01
 -4.6586418e-01
  5.2318746e-01
 -5.3645009e-01
 -1.5369059e+00
 -6.3807791e-01
  3.7890598e-02
 -2.0863834e-01
 -8.2580930e-01
  3.4515403e-02
 -1.0821623e-01
  1.1791393e+00
 -7.0984900e-02
 -5.7520413e-01
  5.4464269e-01
 -1.1117795e+00
  9.2525017e-01
  3.6054909e-02
 -4.3503594e-01
 -1.6371165e-01
  1.1016941e+00
  3.9627764e-01
  3.1154257e-01
  1.3770868e+00
  1.0509864e+00
 -5.8192074e-01
 -1.5775304e+00
  6.9843143e-02
 -6.5930772e-01
  8.9185786e-01
  1.2024136e-01
  1.3337630e-01
  9.3817508e-01
  1.8961915e-01
  5.6481969e-01
 -6.9481552e-01
 -1.1203674e-01
  6.6521955e-01
  3.9026791e-01
  1.0285646e+00
  2.0938899e-01
  9.7298998e-01
 -3.9969033e-01
 -3.6187011e-01
 -2.8986835e-01
 -8.8170344e-01
 -9.6491915e-01
  6.0374647e-01
 -1.3729581e+00
 -1.6792070e+00
 -2.8282017e-01
 -3.8538536e-01
 -1.6209127e+00
  1.7545813e+00
 -2.8335974e-01
 -2.8017846e-01
  1.1562495e-01
 -1.6503627e+00
  1.9642000e-01
  1.3377006e+00
 -1.0308629e+00
  2.4633947e-01
  1.0906876e+00
 -3.5597569e-01
  2.4825990e-02
  7.8325170e-01
  7.4450243e-01
 -7.5064760e-01
 -8.0854118e-02
  8.9672357e-01
  1.6105004e-01
  1.6458237e+00
  1.5762427e-01
  8.0736160e-01
  7.5727515e-02
 -2.6917616e-01
 -1.2703770e-01
 -2.4133761e-01
 -3.5237867e-02
  6.8430859e-01
  1.2489696e+00
  3.9463243e-01
 -3.1481230e-01
 -1.0737274e+00
  2.0514362e-01
  2.6894674e-02
  8.9114326e-01
  2.1256320e-01
  1.0734509e-02
 -3.7425926e-01
  6.3023925e-02
 -6.7397428e-01
 -5.4640524e-02
  3.5401693e-01
 -5.1393253e-01
 -4.6254084e-01
 -7.0548075e-01
  5.5520332e-01
  4.2667750e-01
 -2.3492619e-01
  5.6011158e-01
  6.4137679e-01
  5.4210836e-01
 -8.5379130e-01
  2.4307755e-01
 -1.0116076e+00
 -8.4491879e-02
  1.4544187e+00
 -1.9626491e-01
 -4.0892580e-01
  3.9903748e-01
  4.3656477e-01
  5.7729888e-01
  8.8432528e-02
 -5.2477676e-02
  1.0273329e+00
 -4.7580045e-01
 -5.1781142e-01
 -2.3892769e-01
 -1.5890746e-01
  7.1794856e-01
  3.7021676e-01
 -1.7214787e-01
  2.4833660e-01
  6.0122699e-02
 -2.7444957e-02
 -8.5034215e-01
  2.9701543e-01
 -4.0068364e-01
 -2.3231741e-02
  9.5467106e-02
  1.0299008e+00
 -1.0616989e+00
  1.5697838e+00
 -1.3472903e+00
 -6.6816413e-01
  3.6874017e-01
  7.2501439e-01
 -6.2736034e-01
  2.1239710e-01
 -2.2990182e-01
  3.7063383e-02
  5.7223517e-01
  6.4247680e-01
  9.6322042e-01
  3.6655900e-01
  1.2426258e-01
  1.0723885e+00
 -1.3923107e-01
  8.4093386e-01
 -6.5001810e-01
  9.3892163e-01
 -5.9063685e-01
 -4.8207533e-01
  3.4335065e-01
 -1.5613091e-01
  7.5109726e-01
 -5.7296418e-02
 -2.4565868e+00
  1.6015028e+00
  7.0654666e-01
  5.3416109e-01
 -3.0740836e-01
  1.6406499e-02
  7.6450747e-01
 -4.3146333e-01
  9.2789543e-01
 -5.5553257e-01
  1.2112141e+00
 -8.9614773e-01
  9.8211432e-01
 -8.9742994e-01
  9.3016660e-01
  5.8972889e-01
 -1.7354561e+00
 -2.1618035e-01
 -2.5002709e-02
 -8.9705870e-02
 -5.2827209e-01
  5.9014641e-02
  4.0553528e-01
 -5.1527214e-01
  5.2513945e-01
 -2.3053744e-01
 -4.8756644e-01
  3.3075083e-02
 -6.5425712e-01
 -1.1971429e-01
 -2.1188700e-01
  8.2497340e-01
 -8.0735892e-01
 -8.8962078e-01
  6.3135934e-01
  2.1596447e-01
  7.8669697e-01
  8.5391559e-02
  7.9359287e-01
 -2.2907162e-01
  2.9742613e-02
  7.8285521e-01
  2.0678604e-02
 -1.3805540e+00
 -7.9341993e-02
 -1.6598401e+00
 -1.4726310e+00
 -2.9357696e-01
 -3.2650512e-01
  4.8533666e-01
 -1.3902808e+00
 -1.1080915e+00
 -7.3706132e-01
 -2.4852397e-01
  5.2729505e-01
  5.0836271e-01
  8.1177360e-01
 -3.5726178e-01
 -1.1907375e+00
 -2.7663904e-01
  1.1410895e-01
  1.4336553e-01
 -2.8269753e-01
 -5.2992183e-01
 -1.6054908e+00
  1.4217230e+00
 -1.0141225e+00
  1.5875521e+00
  7.2876543e-02
 -4.8198587e-01
  1.2418032e+00
 -9.3517172e-01
  1.6925280e-03
  1.2164412e-01
 -1.2338731e+00
 -4.6924740e-01
  1.1223661e+00
 -3.6260545e-02
 -7.7204525e-02
  1.1155577e+00
 -1.6200018e-01
 -1.4097140e+00
 -8.2188874e-01
  2.5941011e-01
  8.7073720e-01
  2.2256449e-02
 -1.1473572e+00
  3.9571744e-01
  2.4220006e-01
 -9.1202122e-01
 -6.8323886e-01
  1.4964201e+00
  2.5851052e+00
 -2.8583234e-02
 -1.5933800e-01
 -4.0475386e-01
  9.6527529e-01
  1.1288998e+00
 -3.7880000e-01
 -4.4431767e-01
  1.0088935e-01
 -6.5496117e-01
 -2.4384473e-01
  1.6180672e-01
 -9.0411967e-01
  8.3561295e-01
 -7.8294480e-01
  6.3299876e-01
  5.4282546e-01
 -6.3332003e-01
 -1.2604109e+00
 -6.7237413e-01
  5.0459015e-01
  5.7240349e-01
  1.0549461e+00
  1.1326735e-01
  9.2570722e-01
 -3.4799975e-01
 -8.0624521e-01
  1.5097423e+00
 -8.2941663e-01
  1.4082298e+00
 -2.0703685e-01
 -7.1325064e-01
  4.6796632e-01
  3.3675733e-01
 -2.4889256e-01
  6.7896947e-02
  5.7981737e-02
  6.3223982e-01
 -2.1656625e+00
 -1.5131347e+00
  4.4515127e-01
  9.0653169e-01
  1.0362262e+00
 -1.3762303e-01
  7.6851285e-01
  7.3448616e-01
 -1.8136367e+00
  4.9128246e-01
  9.9827033e-01
 -2.8404087e-01
  1.1556752e+00
  2.1740806e-01
 -1.4531087e+00
 -1.7634501e-01
  1.4486189e-01
 -2.9448348e-01
  1.0835932e+00
 -8.6430138e-01
 -7.3237348e-01
  5.5140235e-02
 -1.1761256e+00
  6.9591981e-01
  3.0957225e-01
  5.4534590e-01
  1.0961903e+00
  7.8407305e-01
 -1.1980591e+00
  5.6688392e-01
  7.8284115e-02
  1.1854111e-01
  2.4757324e-01
  2.3018473e-01
  5.8016324e-01
 -6.8330228e-02
 -1.8447317e+00
  8.0271311e-02
 -6.3482690e-01
  1.5406750e-01
 -6.6379935e-01
 -3.0790561e-01
  8.7604761e-01
  2.4884753e-01
  8.0452937e-01
 -5.9461409e-01
 -3.8363400e-01
 -5.0943598e-02
 -3.2284501e-01
  1.1717749e+00
  8.1128424e-01
 -2.6704357e+00
  1.2810300e-01
 -8.1607324e-01
 -2.4120948e+00
 -4.3764734e-01
 -1.4547012e+00
 -3.3983180e-01
  1.1655734e+00
 -6.9237715e-01
 -4.7787568e-01
  3.9417866e-01
  6.9694501e-01
 -9.3542570e-01
  6.6085017e-01
 -4.7633982e-01
 -6.0326248e-01
 -6.5945977e-01
 -2.6891375e-01
 -2.5937995e-01
  9.8390090e-01
  2.3789738e-01
 -1.2678517e+00
  3.2710898e-01
 -8.3578199e-01
 -5.7190818e-01
 -4.1725930e-02
  1.3070570e-01
  4.9136829e-01
 -9.5312887e-01
 -5.6835330e-01
 -8.5846800e-01
  2.2211495e-01
 -1.6868516e+00
  1.3993104e-01
 -3.8430014e-01
 -8.6871013e-03
 -5.2795494e-01
 -1.0669835e+00
 -3.0654502e-01
 -5.5966926e-01
 -1.5370238e-01
 -1.8427810e-01
 -2.6735348e-01
 -4.8345137e-02
 -6.6423953e-02
 -1.0214584e+00
 -2.4108581e-01
  1.0161517e+00
 -3.3590117e-01
  8.7492830e-01
 -3.7915540e-01
 -9.7102314e-01
  6.5403855e-01
 -3.9334217e-01
 -7.0259303e-01
  1.0244405e+00
  7.5119108e-01
  9.0775442e-01
 -2.3546410e-01
  5.5432153e-01
  7.4183208e-01
 -3.3098888e-01
  3.5686898e-01
 -4.1910931e-01
  6.2426794e-01
 -3.6517116e-01
  4.4693047e-01
 -7.9005748e-01
  8.9059830e-01
  6.4556801e-01
  9.5542461e-02
  8.5634601e-01
 -1.6530135e-01
  1.3757045e+00
 -1.6006500e-01
 -8.4762436e-01
 -3.7539837e-01
 -6.5263891e-01
 -7.9925334e-01
 -3.9670941e-01
  4.6513066e-01
 -1.2706010e+00
 -2.4311082e-01
 -9.3031061e-01
 -2.3552161e-01
  1.0458289e-01
 -3.0622071e-01
 -1.2708124e+00
 -1.2043399e+00
  9.2069402e-02
 -9.5288694e-01
 -1.2977901e-01
 -6.2539291e-01
 -1.3128817e-02
  4.2886559e-02
  3.7634003e-01
  4.9464786e-01
  4.2348596e-01
  1.3258781e+00
 -7.6081995e-03
 -4.5053631e-01
 -3.4405957e-03
 -3.7152764e-01
  1.3305572e+00
 -3.1631887e-02
 -1.7692855e-01
  8.2576895e-01
  1.1986158e+00
  7.6341647e-01
 -1.2724236e+00
  6.4829034e-01
  7.7940983e-01
  4.6155182e-01
 -4.2477804e-01
  6.2129837e-01
  9.5917054e-02
 -5.6193072e-01
 -1.2714639e-01
  7.8520572e-01
  9.8868710e-01
  6.1128938e-01
  1.5409010e-02
 -9.4557858e-01
  2.1273808e+00
  2.3849896e-01
  5.8172822e-01
 -7.7846862e-02
  1.4925528e-01
 -9.4274074e-01
  9.7346258e-01
 -3.7613299e-01
  5.4020172e-01
  9.6012634e-01
  1.7135110e-01
 -1.9209546e-01
 -3.2674485e-01
  1.3920805e-01
  1.1021385e+00
  1.8323529e-01
  6.0693103e-01
  2.9148972e-01
 -5.1998526e-01
  3.6118489e-02
 -5.1200598e-01
  3.5365101e-02
  1.4322726e-01
  3.2473227e-01
 -1.3999683e+00
  1.0095257e-01
 -2.3092489e-01
  2.7347389e-01
  5.6330150e-01
  1.6013519e-01
  2.3756427e-01
  1.5194335e+00
 -1.0919187e+00
  1.5784515e+00
 -4.9118456e-01
  1.2947902e-01
 -4.6028069e-01
  3.8765642e-01
 -5.2937567e-01
 -5.9671658e-01
  4.7574520e-02
  4.1265646e-01
 -5.5214626e-01
  1.2891707e-01
 -7.1307033e-01
 -4.5428330e-01
 -6.2838721e-01
  2.8228110e-01
  9.6636480e-01
  6.1169147e-01
  9.5788866e-01
  7.6102442e-01
  5.3164911e-01
  6.3035965e-01
 -1.3180064e+00
  1.2120446e+00
  1.7446958e+00
  7.6497173e-01
 -8.3863068e-01
  6.9040847e-01
 -6.4286292e-01
 -1.5730489e+00
 -8.1031317e-01
 -2.6567480e-01
 -7.9977319e-02
  4.5506546e-01
 -6.0954118e-01
  1.9197503e-01
  3.9535478e-01
 -2.6872885e-01
 -1.1958312e+00
 -2.6296192e-01
  1.3055849e-01
  1.5499395e+00
  1.1450180e+00
  4.9951237e-01
 -9.8180068e-01
 -8.2426220e-01
 -4.1601464e-01
  2.9505524e-01
 -1.7795397e+00
  5.8243984e-01
  1.9056309e-02
  1.6837814e+00
  1.6623214e-01
  3.7240458e-01
  7.0540196e-01
  4.2965892e-01
 -1.0605391e+00
  1.4452961e-01
 -2.7928990e-01
 -7.8967988e-01
  6.1328226e-01
 -1.3434297e-01
 -9.5226079e-01
  3.4647104e-01
  9.7725469e-01
 -1.0698936e-01
 -5.2578086e-01
  8.2025486e-01
  8.9479387e-01
  6.4604324e-01
  9.4112217e-01
 -4.8080862e-01
  9.6393824e-01
 -2.4342950e-02
 -9.4228023e-01
  1.0092436e+00
 -1.1952190e+00
 -2.9117224e-01
  1.1501695e+00
 -4.0835598e-01
  2.5991538e-01
 -5.4087061e-01
  8.8225996e-01
  1.1242403e+00
  3.9038521e-01
 -4.4001055e-01
 -6.6363019e-01
  1.0495595e+00
 -1.0617645e+00
 -4.8273003e-01
 -1.4549929e-01
 -1.2192892e+00
 -6.8114382e-01
  4.6496075e-01
  1.5183270e+00
  1.1295639e+00
 -4.7458485e-01
  1.3257266e+00
 -1.5560736e-01
  4.1290495e-01
  5.1089084e-01
 -5.8463621e-01
 -8.0139786e-02
 -4.6472847e-01
  2.1937542e-01
 -9.9011058e-01
 -1.6405926e+00
 -4.5162457e-01
  2.8099728e-01
 -3.0326688e-01
 -8.9793557e-01
 -2.2542980e-01
  3.4613352e-02
  8.0819499e-01
  1.2557062e+00
 -9.9348480e-01
  8.6546594e-01
  3.6248484e-01
  2.4470901e-01
 -8.1216210e-01
  8.0654925e-01
  1.4508680e-01
 -2.3572724e-01
  6.6860384e-01
 -6.4014956e-02
 -5.1128036e-01
  3.5687208e-01
  2.1461670e-01
 -8.2602125e-01
  3.0397764e-01
  8.1403740e-02
 -1.5271682e-01
  5.5513477e-01
  9.2406732e-01
 -6.4783144e-01
 -5.2824568e-02
  1.5388488e-02
 -8.1357941e-02
 -7.0423864e-02
 -1.0142281e-01
  2.6954273e-02
  2.3262857e-02
 -1.1753253e+00
 -8.9819044e-01
 -5.1178342e-01
  5.4993834e-02
  3.9094394e-01
 -6.3842654e-01
  3.0645041e-02
  4.4988713e-01
  6.1015743e-01
 -2.7183411e-01
  7.1545476e-01
 -2.6239172e-01
  9.3568140e-01
 -6.6182411e-01
 -8.7965155e-01
 -7.0100993e-02
 -1.4228983e-01
  4.5652732e-01
 -8.2856786e-01
 -5.7077497e-01
 -1.5887408e-01
 -1.6420135e+00
  3.6026734e-01
 -4.8872408e-01
  3.8334051e-01
 -2.2881897e-01
 -3.9801756e-01
  2.0325360e-01
  2.5471953e-01
  8.9490741e-01
  1.2831850e-01
 -6.5793359e-01
 -6.3311779e-01
 -4.4106680e-01
  2.2441767e-01
 -4.5535666e-01
 -5.1775676e-01
  7.2117728e-01
 -7.9635489e-01
  1.1672745e-01
  7.1504459e-02
 -4.8833591e-01
  1.0821088e-01
  5.7708538e-01
  1.1320661e+00
 -8.9682704e-01
  5.6028759e-01
 -3.6315212e-01
  1.8448266e-01
  8.5421878e-01
  9.3312603e-01
  9.0082020e-02
  1.0115566e-01
 -3.0765054e-01
 -2.2782856e-01
  1.3698586e+00
 -7.6744246e-01
 -2.4049325e+00
 -3.4349111e-01
 -8.6933511e-01
 -4.3245864e-01
  2.5626004e-01
 -1.3570230e+00
  1.0223513e+00
  4.7457257e-01
  1.1902667e+00
  1.8724699e-01
 -5.1535696e-01
 -3.2961255e-01
 -9.1690528e-01
 -6.8684810e-01
 -4.8641887e-01
 -3.9081890e-02
 -5.6785602e-02
  5.0325680e-01
  1.0586212e-01
 -2.7027461e-01
  1.0794595e+00
 -4.1167766e-01
  2.9410723e-01
  8.9871965e-02
  5.2585644e-01
 -1.8041207e-01
 -3.8039050e-01
 -5.0233877e-01
 -2.3415068e-01
  7.2581100e-01
 -3.4859955e-01
 -5.5337852e-01
  1.7677066e+00
 -7.2029585e-01
  4.9502075e-01
 -2.7733058e-01
 -2.6632938e-01
  3.5392109e-01
 -4.2134863e-01
 -8.2892078e-01
 -1.2174115e+00
  4.9113488e-01
  1.2632430e+00
 -4.8839742e-01
  8.5343218e-01
  9.3540269e-01
  7.4870402e-01
  1.0336567e+00
 -4.1244334e-01
 -9.2763329e-01
 -4.9422625e-02
  9.0386891e-01
 -3.6810195e-01
 -1.8964127e-01
  1.0588929e-01
  8.3897239e-01
 -9.9558637e-02
 -2.3535717e-01
 -3.9585909e-01
  8.0120273e-02
 -3.6824402e-01
 -1.4533840e+00
  1.1565295e+00
  5.2013421e-01
  1.2476484e-01
  1.7154796e+00
  1.2729458e+00
  1.3289047e+00
 -3.4632772e-01
  6.5097934e-01
  6.4221555e-01
 -9.0710366e-01
 -1.0527939e+00
 -7.3265499e-01
  7.5859942e-02
  8.9326793e-01
 -7.4570328e-01
  2.6309091e-01
 -1.0269611e+00
 -4.1935652e-01
 -1.4857885e-01
  7.7442080e-01
  1.5167577e+00
 -6.9785690e-01
 -2.5340089e-01
 -8.7409502e-01
  3.6721492e-01
  7.9682082e-01
 -2.2500445e-01
  1.2656307e+00
 -1.3626792e-01
 -6.5454960e-01
 -2.7079087e-01
  3.9330512e-01
  5.2336872e-01
 -7.5704181e-01
  3.1523398e-01
 -2.5536876e-02
  6.6064745e-01
  6.1152613e-01
 -6.7172660e-03
 -2.7801803e-01
  3.8792306e-01
 -6.7332774e-01
  1.4860486e+00
 -1.2439461e-01
  6.6321999e-02
  1.1990337e+00
  4.2520526e-01
  1.5461344e-01
 -9.5500755e-01
 -9.3164074e-01
 -2.0558114e-01
 -8.1287098e-01
  6.2313940e-02
 -1.3090218e+00
 -6.4462167e-01
 -5.4190415e-01
 -6.6167241e-01
 -4.4228962e-01
 -3.2749298e-01
 -8.7196636e-01
  4.1148651e-01
 -7.0496696e-01
 -3.7336564e-01
  8.4852087e-01
  5.3285873e-01
  2.9805230e-02
 -8.9094633e-01
  7.0777196e-01
 -5.8054066e-01
  2.5681219e-01
 -6.0830593e-01
  1.8738654e-01
  1.7002752e-01
 -6.0821086e-01
 -3.0043762e-02
 -1.5732409e-01
  5.6196553e-01
  2.0423783e-01
  5.4114115e-01
  2.6685378e-01
  1.3215190e+00
 -5.0619268e-01
  9.4014120e-01
 -7.1151412e-01
  2.1459218e-02
  4.8668793e-01
 -2.2036603e-02
 -4.5713559e-01
  1.0335133e+00
  9.7089779e-01
 -5.9905344e-01
 -6.7806536e-01
 -3.7130544e-01
  3.7125358e-01
 -4.7127824e-02
  4.8236153e-01
  2.3087479e-01
 -9.0944004e-01
  7.2938704e-01
  3.1607306e-01
 -8.8505620e-01
 -1.0293981e+00
  2.6223609e-01
 -6.9111723e-01
  5.2676177e-01
  5.9249526e-01
 -9.4857347e-01
 -1.5527475e-01
  9.0268016e-01
 -1.3097188e+00
  3.8366295e-02
 -2.4259511e-01
  8.3923733e-01
  7.9878587e-01
  7.1500301e-01
 -2.8715223e-01
 -4.9673149e-01
  4.5402177e-02
 -1.8175694e-01
  6.1638540e-01
 -1.4242612e+00
  6.4363772e-01
  7.3504865e-01
 -6.7187709e-01
 -1.6670356e+00
  4.7760326e-01
 -1.3549525e-01
  5.2114409e-01
 -1.4487258e+00
  1.5323789e+00
  7.5284827e-01
  7.7385932e-01
 -1.0996655e+00
 -2.5438949e-01
  9.3576968e-02
 -8.2457840e-01
 -4.5684624e-01
  2.1513262e+00
 -4.3751359e-01
  1.1354573e+00
  6.4592108e-02
 -1.8182442e-02
 -4.1031718e-02
 -8.9466274e-01
  2.6636529e-01
  3.7856570e-01
  8.3306086e-01
  3.7543404e-01
 -1.9819973e-01
 -4.5210287e-01
 -9.9117488e-01
  4.8026815e-01
  2.3069763e-01
  8.4111691e-01
 -1.2585667e-01
 -3.4494126e-01
 -1.5700912e-01
  1.7611311e-01
  1.2703209e+00
 -1.3574005e+00
  5.7697320e-01
 -8.4579021e-01
 -5.0785321e-01
 -7.1201408e-01
  2.3405644e-01
 -1.2360919e+00
  4.6569285e-01
 -6.8289347e-02
 -2.7693181e+00
 -6.5590471e-02
 -3.4494197e-01
  3.6311990e-01
 -1.9968258e-02
 -7.3572582e-01
 -5.9986073e-01
 -7.4348515e-01
 -3.9284617e-02
 -4.8231584e-01
 -2.3439758e-02
  5.3966540e-01
  1.3812490e+00
 -2.1187663e+00
 -1.0833249e+00
 -1.0672392e+00
  5.3779447e-01
 -1.3214087e+00
 -4.3026927e-01
  1.6407527e-01
  1.0123765e+00
 -7.4291825e-01
  8.2164079e-01
 -6.3559163e-01
  1.7205895e+00
 -4.7021213e-01
 -5.0826043e-01
 -1.9789985e-01
  8.3809459e-01
 -6.2261701e-01
  3.7606117e-01
 -1.5583596e-01
 -2.9174045e-01
 -1.1107090e+00
 -2.0255068e-02
  2.6373053e-02
 -1.9378281e-01
 -4.7171363e-01
  2.4493946e-01
 -1.6822864e-01
 -4.7233948e-01
  1.3961954e+00
  2.2748439e-01
  4.5978755e-01
  6.6476756e-01
 -6.3509947e-01
 -1.5495299e-01
  1.1905437e-01
  6.6428077e-01
  3.4431639e-01
  5.9125394e-01
  1.2690274e+00
 -2.3842695e-01
 -2.3771799e-01
  1.0549576e+00
  7.6833373e-01
 -3.7563309e-01
 -4.2838967e-01
 -6.1330926e-01
 -2.8960204e-01
 -1.7191021e-01
 -1.0521405e+00
 -2.2582799e-01
  3.0123493e-01
 -1.7440490e-01
  7.1464705e-01
 -6.3384247e-01
 -7.6370552e-02
 -8.6824310e-01
 -1.3979256e+00
 -6.9395268e-01
 -1.3630751e-01
 -8.9791059e-01
 -6.2824261e-01
  8.8145411e-01
 -1.3570808e+00
  1.1706660e+00
  4.2406115e-01
  7.3105976e-02
 -1.5912661e-01
 -6.2500626e-01
  7.7960348e-01
  2.3911653e-02
 -1.2029628e+00
  8.7590981e-01
  9.1337997e-01
  4.5647421e-01
 -6.9183505e-01
  8.0897117e-01
  3.4514893e-02
  1.2793250e-01
 -9.0082955e-01
  1.5663714e+00
 -6.6174477e-01
  4.2721441e-01
  1.6445892e-01
 -2.4276914e-01
  1.6581185e-02
  6.6921389e-01
 -1.0892625e+00
 -1.5294803e+00
  5.2479196e-01
  3.2622185e-01
  1.4471033e-01
  8.5192055e-01
  6.8160158e-01
 -8.2956415e-01
 -6.5530814e-02
 -6.6611713e-01
 -9.2540348e-01
 -4.7025022e-01
 -1.1143976e-01
  6.1813611e-01
  4.0742835e-01
  4.6669179e-01
  6.6355991e-01
 -6.7804801e-01
 -1.4581528e-01
 -5.1432317e-01
 -1.4045848e+00
  8.2150269e-01
 -1.0071087e+00
 -1.3601781e+00
 -1.8415883e+00
  1.1059895e+00
  6.0151041e-01
  5.7072765e-01
 -2.6007813e-01
  1.0364363e-01
 -1.1315814e+00
 -6.5876532e-01
  4.8815536e-01
  7.4961209e-01
  8.2021981e-01
  3.8646182e-01
  7.2533530e-01
 -2.4275144e-03
 -2.0765524e-01
 -4.5338663e-01
  9.8096228e-01
  1.1076418e+00
  2.3061202e-01
  9.6612310e-01
 -6.4584845e-01
 -2.0995694e-01
  4.2725307e-01
 -1.1761203e+00
  8.8162792e-01
 -5.1364034e-02
 -1.5552078e+00
 -1.0568216e-01
 -2.5879893e-01
 -1.5888953e-01
 -3.9563659e-01
  3.7149653e-01
 -8.0466747e-01
  8.8080919e-01
 -1.0038859e-01
  1.3191630e-02
  5.2771223e-01
 -2.8766930e-01
  2.0004107e-01
  5.1631123e-01
  1.6373384e+00
 -1.0288193e+00
  3.8557082e-01
 -6.3887274e-01
  6.5567279e-01
  6.0057694e-01
  1.2162502e+00
  1.1206897e+00
  1.0411912e+00
 -1.2711300e+00
 -2.4018414e-01
 -3.3018771e-01
  3.5538048e-01
 -8.4614813e-01
 -9.2349601e-01
  7.1083337e-02
 -5.8814473e-02
  5.4344726e-01
  8.4866673e-01
 -6.1636031e-01
 -4.6369717e-01
  6.8152291e-01
 -4.7511709e-01
 -1.2194186e+00
 -8.0768031e-01
  1.2281169e+00
  6.1833191e-01
 -8.5100389e-01
 -1.2007710e-01
  1.3300481e+00
  4.8469913e-01
  4.4195026e-01
 -7.6492883e-02
 -1.1720921e+00
 -6.9017935e-01
  1.5615846e-01
 -3.7443566e-01
 -1.6003741e+00
  8.7992150e-01
  3.1082727e-02
 -6.3588518e-01
 -7.3600119e-01
 -1.2185997e+00
  4.5426290e-02
  5.7054937e-01
 -1.0950601e+00
  1.1003615e+00
 -1.5010798e+00
 -1.0070838e-01
  1.2310094e+00
  1.2622223e+00
  3.7223992e-01
  2.6165840e-01
  9.2872000e-01
  1.3262429e+00
 -1.0734384e+00
  2.3700927e-01
  3.9885652e-01
  3.6409789e-01
  1.3069800e-01
 -5.7134873e-01
 -8.6344659e-01
  7.6518530e-01
 -2.2117071e-01
 -9.0736842e-01
  4.8667837e-02
  3.1117603e-01
 -1.4190994e-01
  6.4954150e-01
  1.5804733e-01
  3.0290863e-01
  8.1579709e-01
 -8.5179323e-01
  6.6414940e-01
  9.8012334e-01
  2.2828256e-01
 -2.2539896e-01
 -4.8691368e-01
  2.9744697e-01
  1.2949229e+00
 -8.1025213e-01
 -4.2248511e-01
  1.8410288e+00
  4.0507261e-02
  5.4012203e-01
 -3.3554563e-01
 -5.4417503e-01
  3.3555320e-01
  8.3119911e-01
  1.0764689e+00
  3.0357051e-01
 -2.6046586e-01
 -5.2130240e-01
  2.6640643e-03
 -2.9146856e-01
  8.7010704e-02
 -9.3455034e-01
 -1.3445334e+00
  2.1254781e-01
  8.2567579e-01
  1.0357746e-01
 -5.9164834e-01
  7.8827029e-01
 -2.7799809e-01
  9.6462160e-01
 -2.1817384e+00
  1.3628414e+00
 -6.2037718e-01
  1.0393620e-01
  5.2491069e-01
  1.1972672e+00
  1.9484043e-01
 -1.7359854e-01
  9.3079537e-01
  3.3152048e-03
 -5.5886066e-01
 -7.5776452e-01
 -2.5044161e-01
  7.7428867e-04
  5.8842003e-01
  3.2214743e-01
  1.6956704e-02
  4.4819435e-01
 -6.2413269e-01
 -9.4966954e-01
 -1.2387760e-01
 -2.6058149e-01
 -1.5001407e-01
 -2.1495999e-01
 -1.5990814e+00
  6.9233489e-01
  1.1534675e+00
  2.5820497e-01
 -1.1564730e-01
  6.1683536e-01
  4.7448689e-01
 -5.2278066e-01
  9.2956746e-01
  5.8964002e-01
 -8.0659705e-01
 -2.0690966e-01
 -9.2178112e-01
 -5.3174961e-01
  1.8747098e+00
  1.2594432e-01
  2.7077213e-01
 -8.5406177e-02
  4.1976836e-01
 -1.6779692e+00
 -3.3431310e-02
  2.9571548e-01
  8.7135345e-01
 -2.0284747e-01
 -2.8241143e-01
  8.1033283e-01
  2.1996824e-01
  1.5220790e-01
 -1.3318911e+00
 -2.1169174e-01
 -3.2683823e-01
 -2.4949141e-01
  2.2071439e-01
 -6.8338209e-01
 -4.3967095e-01
 -5.8266544e-01
 -3.8782084e-01
 -1.1962238e-01
  3.7435049e-01
  3.9588684e-01
  3.6824396e-01
  3.5457885e-01
  1.2655230e-01
  3.8114297e-01
  6.4724195e-01
 -8.3983314e-01
 -3.3608958e-01
  4.3621573e-01
  2.2631048e-01
 -5.1293278e-01
  7.5357628e-01
 -8.5511726e-01
  1.1805431e+00
 -5.9301519e-01
 -3.4469706e-01
 -3.0437326e-01
  4.6107166e-02
 -5.3054363e-01
 -7.8503531e-01
 -1.3691822e+00
  1.2136354e+00
 -1.2446965e-01
 -2.2946607e-01
  9.8188233e-01
  1.4822861e+00
 -9.3392557e-01
  1.0844543e+00
  7.7871782e-01
 -2.7281529e-01
  1.2295614e-01
 -8.5745519e-01
 -3.6649305e-01
 -5.4951704e-01
  1.3574786e+00
 -1.4843471e-01
 -2.8880510e-01
 -2.7057892e-01
 -5.0894892e-01
  1.5612243e+00
 -1.7454388e-02
  1.7152408e-01
 -1.2564538e-01
 -8.0574310e-01
  5.4047942e-01
  1.7088744e-01
  1.0791951e+00
 -3.0049363e-01
 -5.7521647e-01
  4.8017979e-02
  3.2233906e-01
  3.1241724e-01
 -5.7684278e-01
 -9.7777122e-01
  1.4749928e+00
  7.7405018e-01
  9.4418101e-02
  1.7094311e-01
  8.8581771e-01
 -4.2250919e-01
  8.8362747e-01
  1.0271100e+00
  6.2961918e-01
 -6.9575578e-01
 -2.0180556e-01
  3.8006136e-01
  7.6210159e-01
 -7.2981954e-01
 -5.2273143e-02
  2.9958090e-01
  1.5593740e+00
 -8.8820922e-01
  8.5054773e-01
 -9.5021951e-01
  1.0852917e-01
  3.1212965e-02
 -6.0720521e-01
 -2.1165766e-01
 -6.5590039e-02
 -5.8608466e-01
  1.2221968e+00
 -5.4057091e-01
 -1.1612077e-01
 -1.4872876e+00
  1.0558822e-01
  1.0911980e+00
 -1.9780618e-01
  2.6451865e-01
 -6.3320643e-01
 -1.5013973e+00
 -5.3376395e-01
 -7.0470321e-01
  2.4336821e-01
  8.2311696e-01
 -4.4605270e-01
 -3.8520533e-01
 -4.9251992e-01
  4.6008354e-01
  2.2411840e-01
 -6.3906914e-01
  3.1673598e-01
 -6.1389196e-01
  2.5601706e-01
  7.9642236e-01
 -5.2591860e-01
 -2.5168151e-01
 -2.8675693e-01
 -1.2052957e-01
  2.1796198e-01
 -2.3118506e-01
  3.5123578e-01
  1.4321858e+00
  1.2002518e+00
 -2.7072421e-01
 -2.3167685e-01
 -5.7200015e-01
 -3.2113925e-01
 -2.9057896e-01
  1.2870674e-01
 -4.2790407e-01
  8.8902491e-01
  1.0504670e+00
  1.4813721e+00
  1.0986769e+00
  1.0742645e+00
  4.9873251e-01
 -1.0512798e+00
  9.3056101e-01
  7.5011152e-01
 -3.9521083e-01
  2.1916460e-01
  6.9015849e-01
  1.0569307e+00
  7.0304289e-02
  6.8873471e-01
  3.9157966e-01
 -2.0234630e+00
  1.9359112e+00
 -9.5005594e-02
  1.2332410e+00
  8.9078389e-02
  7.1788096e-01
 -2.7088875e-01
 -9.3587738e-01
  1.4646798e+00
 -1.1810706e+00
 -3.4036517e-01
 -3.1591110e-02
 -5.2039826e-01
 -6.8095404e-01
  4.4279602e-01
  1.5467988e-01
  8.2058871e-01
 -9.7329867e-01
 -1.1879886e+00
  3.1279981e-01
 -1.0065209e-01
 -8.8209903e-01
  4.5597991e-01
 -1.4274384e-01
 -4.3546204e-02
  1.8745177e+00
 -4.8864046e-01
 -1.2075146e+00
  1.9275316e+00
  1.4471128e+00
  1.4935635e-01
  3.2052535e-01
 -6.5470040e-01
 -8.7394488e-01
 -2.3509508e-01
 -3.7661511e-01
 -2.0434248e+00
 -4.0272751e-01
 -2.4531128e-01
 -4.5988989e-01
 -1.4173879e-01
 -1.3319938e+00
 -5.6112671e-01
 -6.2352717e-03
  5.3674316e-01
  6.3819689e-01
 -9.5320892e-01
 -6.8749875e-02
  5.9932452e-01
  4.9094111e-01
 -4.4471076e-01
 -4.9348485e-01
 -3.2181373e-01
 -5.2717769e-01
  8.5880011e-02
  3.4221521e-01
 -2.6078174e-01
  1.6355780e+00
 -4.3679002e-01
  1.7616893e+00
 -3.2545677e-01
 -4.0522811e-01
  9.1372418e-01
  3.0784783e-01
 -5.4595387e-01
 -8.4828749e-02
 -1.1315461e+00
  1.5042660e-01
  7.2166163e-01
 -7.1636331e-01
 -6.3236785e-01
  5.2805555e-01
  1.6191779e+00
 -1.4367400e+00
  9.2823058e-01
  1.3829787e+00
  2.2381423e-01
  3.6754042e-01
 -1.0090038e+00
  1.9665552e-02
  1.2023036e+00
  1.0587707e-01
 -3.1705123e-01
  1.1628159e+00
  1.0715914e+00
  4.9534971e-01
 -2.5682759e-01
  4.7848123e-01
  2.2546552e-02
 -1.4139093e+00
 -1.0716265e+00
  7.2377861e-02
  1.2564907e+00
  1.0685382e+00
  6.9735992e-01
 -2.2058114e-01
  1.2424711e+00
 -8.2412380e-01
  4.7050229e-01
  3.7398291e-01
  2.4354807e-01
 -2.3996539e-01
  8.1961769e-01
  9.5710480e-01
  8.1262171e-01
  3.5199824e-01
  1.2865018e+00
 -1.0052161e+00
  1.2217145e+00
  2.8079626e-01
 -1.0607517e-01
  6.0615301e-01
 -4.9000132e-01
 -8.7645352e-01
  1.8259640e-01
 -4.9417636e-01
 -3.0111560e-01
  5.3501850e-01
  7.2441584e-01
 -2.4577560e-01
 -2.0365162e+00
  9.8633790e-01
  3.8599834e-01
  3.3721015e-01
 -1.2512822e+00
  7.3187888e-02
  1.5209568e-01
  4.1686022e-01
 -8.7811899e-01
  2.0943600e-01
 -1.2974188e-01
 -9.5439333e-01
  4.2728576e-01
  6.5601754e-01
  1.3271921e+00
 -7.3244143e-01
 -6.2042767e-01
  3.1459394e-01
  1.7837128e-01
  1.6574590e-03
 -2.8507391e-01
 -2.7270088e-02
 -1.7917305e-01
 -4.8000103e-01
 -2.8136048e-01
 -1.3102818e+00
 -6.4333096e-02
  1.7719120e+00
  1.5104340e-01
 -2.6498896e-01
 -5.7145053e-01
 -1.3482857e-01
  4.0930137e-01
  5.4462534e-01
 -6.0870832e-01
 -1.1976487e-01
  1.6333590e-01
  6.5106280e-02
  4.2239690e-01
 -1.7126412e+00
  2.2801582e-02
 -1.3643121e+00
 -4.5844328e-01
 -9.7813082e-01
  6.1373740e-02
  3.8117599e-01
 -1.9019830e-01
  5.1090217e-01
 -3.8621446e-01
 -6.5486217e-01
  1.6237010e-01
 -6.7790252e-01
 -5.0011784e-02
  6.6315198e-01
  1.2397240e-01
  3.9637187e-01
 -8.7783523e-03
  1.2642586e-01
  7.1499415e-02
 -1.6213104e-03
  3.9299795e-01
  4.3232194e-01
  3.5078809e-01
 -4.0007696e-02
 -5.0614911e-01
  1.2114359e+00
  1.1483599e+00
 -1.3238846e+00
 -2.9936486e-01
  1.3981309e+00
  8.4139127e-01
 -6.0317940e-01
  5.7586499e-02
 -9.9049276e-01
  7.0102221e-01
 -6.1609936e-01
 -4.4914894e-02
  1.4246144e+00
  1.5629486e+00
 -1.2670186e-02
  3.1910607e-01
 -2.5710203e-02
 -1.0010825e-02
 -2.4701083e-01
  4.3812370e-01
 -2.2230066e-01
  1.7894119e-01
  2.7709937e-01
 -5.4925847e-01
  3.5199732e-01
  5.0342667e-01
  1.8945061e-01
 -8.6373650e-02
 -2.4605738e-03
 -2.0167749e+00
 -2.0620528e-01
 -1.8629761e+00
 -4.8072693e-01
 -1.3806853e+00
  7.0540226e-01
  3.6558369e-01
  8.0383605e-01
  4.2191420e-02
  1.6433235e-01
  8.0932981e-01
  2.4237013e-01
  6.1210924e-01
 -2.5851640e-01
  1.1267761e+00
  3.6924079e-01
 -1.6883288e-01
 -5.2309155e-01
 -1.8353811e-01
 -5.7725871e-01
  9.9760360e-01
 -7.2299582e-01
  1.6742048e-01
  2.7557382e-01
  4.7693036e-02
  6.2471414e-01
 -1.9809428e-01
  2.8659245e-01
 -1.5058406e-01
 -4.2878976e-01
 -3.8376614e-01
  5.1501220e-01
 -4.5866641e-04
  1.7516419e-01
  3.5845566e-01
 -1.6134237e+00
  4.3167818e-01
 -1.2882289e+00
  3.1842482e-01
  5.2386212e-01
  1.3468885e+00
 -7.7652894e-02
  1.2190608e+00
 -5.8012193e-01
 -6.5515834e-01
  2.0219979e-01
  2.6865724e-01
  2.0006771e+00
  1.0854557e+00
  2.3458476e-01
 -1.0601538e+00
 -6.3478611e-02
 -2.5753185e-01
  1.0059722e-01
 -5.0733006e-01
  6.9703215e-01
  2.7799022e-01
  5.8711684e-01
 -9.5622653e-01
 -4.6911645e-01
  5.8889103e-01
  5.5780917e-02
 -1.7735766e-02
  5.2193642e-01
 -1.2853709e+00
  4.8905966e-01
  1.0259824e+00
  1.9066734e+00
  4.7302857e-01
 -1.1041013e-01
  2.6052005e+00
 -4.2802808e-01
  9.0322322e-01
 -1.8640184e+00
 -1.0928566e+00
 -5.0308162e-01
 -4.0035817e-01
  5.2331954e-01
 -2.9690781e-01
  2.4207556e-01
 -5.5949199e-01
  4.0663442e-01
  7.5608951e-01
  6.2722135e-01
 -2.0916763e-01
 -5.0621563e-01
  4.6097943e-01
 -1.2258068e-01
 -2.8873721e-01
  3.3853772e-01
  4.4518700e-01
  1.8522280e-01
  6.1945009e-01
 -7.1929812e-01
 -3.3315086e-01
 -1.7427370e-01
 -4.2580357e-01
  1.4753568e-01
 -5.2481174e-01
 -1.2124658e+00
  1.0884879e+00
 -1.3060589e+00
 -2.3919761e-01
 -1.3067895e-01
 -1.0067369e+00
 -2.2162414e+00
  6.7085749e-01
  2.3167355e-01
 -1.7051464e+00
 -4.7791773e-01
  2.5797216e-02
  1.7932605e-02
 -7.2220069e-01
  3.4152949e-01
 -4.1883218e-01
 -4.7385955e-01
  1.7784630e+00
  2.2717359e+00
 -1.3565707e-01
 -6.4339697e-01
 -3.6379865e-01
 -1.0836744e+00
  2.1834197e-02
 -1.1501373e+00
  3.8259059e-01
  5.8010119e-01
  1.5187241e-01
  1.0492374e+00
  5.0047725e-01
  1.1412706e+00
  4.2317080e-01
  1.4491906e+00
  1.3914703e-01
 -3.7030703e-01
  5.1294327e-01
  4.8175335e-01
 -7.8908348e-01
 -1.1401811e-01
 -2.2920227e+00
  1.0750322e-01
 -2.5182244e-01
 -8.8910860e-01
 -1.7781748e+00
  2.3639454e-01
 -3.3281412e-02
  4.3311751e-01
  1.8029746e+00
  6.5457016e-01
  6.8005182e-02
 -1.5605426e-01
 -4.1889587e-01
 -8.0692405e-01
 -5.0121762e-02
 -4.2930695e-01
  1.7172618e-01
  1.1848764e+00
  5.1479363e-01
 -1.5640360e-01
 -6.1464965e-01
  9.9662817e-01
 -6.9407821e-01
 -9.2117715e-01
 -4.1529518e-01
 -1.2772999e+00
 -3.7566155e-01
 -1.6835183e+00
 -6.5098017e-01
 -1.4246711e+00
 -1.1556747e-01
  2.9500011e-01
 -1.0966179e+00
 -1.1941006e+00
 -4.9891257e-01
 -1.3220760e+00
  2.8163391e-01
  4.8023998e-03
 -8.9077199e-01
  1.1421870e+00
 -4.9727362e-01
 -8.0634391e-01
  1.0913103e+00
 -7.2938877e-01
 -3.6991465e-01
  1.6618207e-01
  6.0702521e-01
  1.7397566e+00
  1.1844791e-01
 -1.3514093e-01
 -1.6278610e-02
  4.1770151e-01
  1.4252266e-01
  6.3527822e-02
 -1.9608662e-01
 -3.5988909e-01
 -4.4570897e-02
 -1.7844801e-01
 -2.0929880e+00
  3.6792532e-03
  3.7879482e-01
 -6.0935789e-01
 -3.1803948e-01
  2.5156513e-01
 -1.7164047e-01
 -3.5996267e-01
  1.7258312e-01
 -1.0569803e-01
  1.4049006e-01
  3.5405749e-01
  4.3986875e-01
  1.0480695e+00
  4.3779913e-01
 -5.3274518e-01
 -2.1949941e-01
 -6.1927193e-01
 -6.1143512e-01
  4.2709392e-01
  2.6659432e-01
 -8.6738569e-01
 -4.2186481e-01
 -1.4389396e-02
  5.0699722e-02
 -2.3048930e-01
 -8.5047567e-01
 -3.4075546e-01
 -1.5796036e-02
  2.1952933e-01
 -8.4848806e-02
  1.0363975e+00
 -3.3906123e-01
  9.0727222e-01
  8.0652162e-02
  2.4867763e-01
  3.5793814e-01
 -6.5463239e-01
  2.5846273e-01
 -1.2104458e+00
  1.3914760e+00
  1.6955030e-01
  5.2734238e-01
  6.0951555e-01
 -6.2192482e-01
 -1.6182037e-01
 -6.7680115e-01
  9.0654194e-02
 -5.4744855e-02
 -2.6355928e-01
 -3.4632322e-01
 -1.7398621e+00
  1.0005738e+00
  3.4672248e-01
 -7.5489587e-01
 -1.1605918e+00
 -1.5289380e-01
 -4.0590721e-01
  5.1965547e-01
  2.8620857e-01
  2.8964630e-01
 -6.2568843e-01
 -1.1481006e-02
  1.1248502e+00
 -1.8548341e-01
 -4.6734843e-01
 -8.9353144e-02
 -7.5337954e-02
 -2.8431594e-01
  7.0189339e-01
 -6.8719125e-01
  1.1221998e+00
  5.7255965e-01
  9.9322104e-01
 -2.6561838e-01
  4.1726387e-01
 -1.0603437e-01
  1.9594359e-01
 -7.7191740e-01
  5.1793528e-01
  1.8188063e+00
 -2.8493586e-01
 -7.8193033e-01
 -9.3077826e-01
 -6.4530498e-01
 -1.3252130e+00
 -1.0244161e+00
  4.0040874e-01
 -1.8526180e-01
 -5.2124053e-01
  5.7663810e-01
  8.6192471e-01
 -5.8587772e-01
 -1.1824367e+00
  2.3112355e-01
 -1.4597858e+00
 -1.7031157e+00
 -7.2176510e-01
 -7.2802317e-01
  9.6136421e-01
 -1.2971672e+00
 -1.8685293e-01
  2.3597442e-01
  9.8536122e-01
  1.1387016e+00
  2.1758904e-01
 -1.5648775e-01
  1.0632297e-01
  1.1144634e+00
  5.5971551e-01
  1.9642720e-01
 -9.7147770e-02
 -5.1568460e-01
  3.1296518e-01
  1.1224445e+00
  1.9606413e-02
  1.1547440e+00
  1.1584903e+00
  6.5162104e-01
 -7.7861685e-01
 -6.0243195e-01
 -1.1355914e+00
 -4.3985176e-01
 -9.7731715e-01
 -3.7845317e-01
  7.6911807e-01
  1.5488676e+00
  3.4847325e-01
  5.1761788e-01
 -1.0751944e+00
 -8.5512823e-01
 -5.6457192e-01
 -2.8816757e-01
  3.9641079e-01
  1.2505833e+00
 -4.5013091e-01
 -1.0365934e-01
 -1.2375419e+00
  7.5330299e-01
  3.0515715e-01
  1.0399001e+00
 -7.2133750e-01
 -3.3542180e-01
  6.9656156e-02
  4.5163080e-01
 -4.3362999e-01
  5.0707078e-01
 -7.0504464e-02
  4.5121953e-01
  2.9590972e-02
 -2.4701878e-01
 -7.1481603e-01
  9.0936464e-01
  4.5814794e-01
  1.0766269e+00
  2.6617768e-01
  1.4748350e-01
  8.2521844e-01
  8.8581979e-01
  8.6954230e-01
  1.4716777e+00
  1.0659447e-01
 -1.6661951e-02
  8.2062858e-01
 -3.8724601e-01
  4.9623656e-01
 -1.0025884e-01
 -2.1453971e-01
 -1.1319606e+00
 -1.4891793e+00
  8.4883374e-01
  1.0525419e+00
  1.3115363e-01
 -1.0318675e+00
 -1.5432402e-01
  6.3228488e-01
  3.8390875e-01
  1.2347736e+00
  1.9231764e+00
  4.0602511e-01
 -1.3553725e-02
 -7.8818834e-01
  1.3282580e+00
  5.2784544e-01
 -7.6447183e-01
  8.1134176e-01
  1.2748495e+00
 -8.1211835e-01
  3.5121387e-01
  1.9278706e+00
  3.4593379e-01
 -4.1417113e-01
 -4.9204203e-01
  9.1992807e-01
  8.6795992e-01
 -1.0130824e+00
 -5.6237179e-01
  3.5187912e-01
  7.2572815e-01
 -2.7557704e-01
  5.6701159e-01
  9.0416026e-01
 -2.2104090e-01
 -1.8518183e-01
 -5.5315948e-01
 -7.1432012e-01
 -2.7520159e-01
 -4.7396488e-02
  7.1360844e-01
 -1.7645018e-01
  7.7196568e-02
 -1.4510523e-01
 -2.8652138e-01
 -1.6846738e+00
  3.5407707e-01
  1.0875623e+00
  1.4887379e+00
  4.2580119e-01
 -2.4991225e-01
  8.1009996e-01
 -1.0444249e+00
  5.7537127e-01
 -7.5763929e-01
  7.1290031e-02
  6.8547899e-01
  1.8548951e-02
 -6.5112782e-01
  3.3496392e-01
 -1.3451124e+00
 -2.2436824e-01
 -1.9139172e-01
 -2.5513473e-01
 -2.1726636e-02
  1.2025453e+00
 -7.5713587e-01
  7.1887976e-01
  5.5057228e-01
 -7.9335362e-01
 -1.2213947e+00
 -2.9487795e-01
  1.5061531e+00
 -4.9686581e-02
 -5.1284973e-02
  1.1926420e+00
  6.9411659e-01
 -1.0287437e+00
 -1.7035855e-01
 -8.5469085e-01
  2.3855060e-02
  4.4828233e-01
  1.2574300e-01
  7.0982897e-01
  4.3189642e-01
 -6.9906306e-01
  4.0625939e-01
 -3.1450938e-02
 -8.6103016e-01
 -2.2813846e-01
  2.9941225e-01
 -1.7646338e-01
 -4.6875602e-01
 -3.1317624e-01
 -7.3774427e-02
 -8.6153197e-01
 -5.7397437e-01
 -9.2974722e-01
 -9.3846582e-02
  4.2093933e-01
  1.2937613e-01
 -4.5725417e-01
  8.2861923e-02
  6.2239337e-01
 -1.3068736e+00
  1.3628519e+00
 -6.4446196e-02
  1.6004990e-01
  3.4831709e-01
 -1.9540415e+00
  5.7343131e-01
 -1.3207647e-01
 -6.1218339e-01
 -3.5266808e-01
 -2.8893262e-01
  1.0075247e-01
 -2.6736915e-01
 -7.2793311e-01
  1.0658640e+00
  5.6821316e-01
 -2.0959358e+00
  1.1809496e+00
  1.2225231e+00
 -7.0954275e-01
 -9.5502965e-02
  2.3581631e+00
  8.3748454e-01
 -1.3039479e+00
 -5.9327757e-01
  7.6659608e-01
 -2.0969620e-01
 -4.2990384e-01
 -2.5304788e-01
  5.8543146e-01
 -2.2904870e-01
 -9.0465039e-01
  6.2755561e-01
  7.7476531e-02
 -5.5413985e-01
 -7.6022953e-01
 -1.6500424e-01
  8.7968284e-01
 -1.3854602e-01
 -3.0435559e-01
  1.4797820e-01
 -2.9890910e-01
  1.3036908e+00
  1.8101574e-01
 -1.0217822e+00
  1.8021873e+00
  1.2175909e-01
 -1.6780595e-01
 -1.6360706e-01
  3.4463707e-01
  4.3872967e-01
 -2.9600272e-01
  7.6918328e-01
 -2.0403999e-01
  5.6856328e-01
 -1.8229857e-01
 -6.5165949e-01
  5.1304001e-01
 -1.1373471e+00
  2.3363854e-01
  1.9175608e-01
 -6.8742698e-01
 -1.3245934e+00
 -7.0435882e-01
  3.7322108e-02
  3.7322108e-02
  3.7322108e-02
  3.7322108e-02
  3.7322108e-02
  3.7322108e-02
  3.7322108e-02
  3.7322108e-02
  3.7322108e-02
  3.7322108e-02
  3.7322108e-02
  3.6480613e-02
  3.6480613e-02
  3.6480613e-02
  3.6480613e-02
  3.6480613e-02
  3.6480613e-02
  3.6480613e-02
  3.6480613e-02
  3.6480613e-02
  3.6480613e-02
  3.6480613e-02
  2.6230719e-02
  2.6230719e-02
  2.6230719e-02
  2.6230719e-02
  2.6230719e-02
  2.6230719e-02
  2.6230719e-02
  2.6230719e-02
  2.6230719e-02
  2.6230719e-02
  2.6230719e-02
  1.6671879e-02
  1.6671879e-02
  1.6671879e-02
  1.6671879e-02
  1.6671879e-02
  1.6671879e-02
  1.6671879e-02
  1.6671879e-02
  1.6671879e-02
  1.6671879e-02
  1.6671879e-02
  1.6214835e-02
  1.6214835e-02
  1.6214835e-02
  1.6214835e-02
  1.6214835e-02
  1.6214835e-02
  1.6214835e-02
  1.6214835e-02
  1.6214835e-02
  1.6214835e-02
  1.6214835e-02
  1.6157014e-02
  1.6157014e-02
  1.6157014e-02
  1.6157014e-02
  1.6157014e-02
  1.6157014e-02
  1.6157014e-02
  1.6157014e-02
  1.6157014e-02
  1.6157014e-02
  1.6157014e-02
